192250 300
i -2.233159 3.388805 2.033848 -4.184578 -0.516987 -0.554699 -3.458305 -2.087039 -1.968421 2.897791 -2.457318 -1.790688 1.286083 0.913886 2.399312 -2.468832 0.290186 -2.230206 -0.931992 -1.354998 0.273360 1.167981 -0.167676 -0.615826 -1.025732 -0.220372 -0.125712 1.479132 0.633902 -0.055354 1.831867 -1.048045 -1.539246 -1.577140 1.965349 0.717230 1.097553 2.004623 -1.720346 1.141401 0.262740 -0.349977 1.088907 2.477942 1.061185 -1.776497 -2.750567 -0.203926 0.301869 -0.695829 -0.732342 1.003791 3.347823 -1.347649 -2.573362 -0.914632 0.370157 -2.806763 0.877113 0.677231 -1.857742 0.563798 -0.629185 3.636128 2.626099 -1.141297 1.238138 1.582138 0.256165 2.688550 -0.737744 0.307923 1.937718 -0.365425 3.681624 -3.202868 0.383156 4.005377 -1.208984 -1.154464 1.729270 -1.269456 6.076246 0.460844 1.043163 -0.763641 -1.789489 0.830328 -2.117042 -2.431815 0.331455 -0.646951 -0.327583 1.764105 -0.743159 -0.447834 -0.458332 -0.374707 -3.437744 -3.376690 -1.605318 -2.234772 -2.133663 1.621618 -0.458952 -1.070503 2.480318 -0.149065 -2.736154 2.189291 -1.312632 -2.489036 0.046565 -0.539737 -2.046244 3.136182 -0.437531 1.723700 -1.404113 1.361373 0.084401 -1.415101 1.150858 -0.131642 -2.829763 -0.746534 1.362735 2.501698 0.915671 0.190627 1.229289 -0.458279 -0.622052 -2.133086 -0.312064 -0.985517 -1.348343 -0.956316 -1.374465 -0.146167 4.015527 0.307000 -0.057528 1.139455 -1.796251 0.854961 -1.979332 -3.233927 -0.950080 0.767641 2.880606 1.757901 -2.611600 2.403142 0.862982 0.566624 -0.544597 0.576956 -0.708678 -1.280479 -2.321499 1.286390 3.558567 -1.752271 1.230596 1.317853 0.577622 -2.373985 3.056283 -2.038908 -2.840139 1.620601 -3.010067 1.923964 -2.508107 -0.853698 -0.710351 -0.769580 -4.275910 1.731774 -1.450872 -5.787000 1.641187 1.120729 -0.312731 -2.497578 -1.271950 1.214335 1.797435 0.225075 1.788842 -1.642262 -2.101850 -1.183123 -1.377692 1.656627 0.987533 0.538339 1.420947 1.527378 -0.495145 -1.817999 1.287521 1.317562 2.973810 -3.294765 -4.452880 -1.774470 -0.104827 -0.504976 -0.876683 -1.017769 -3.003941 -0.105539 -0.903801 -2.611957 -0.341802 -1.184894 -2.050951 0.899495 0.845745 -0.530382 -0.065935 -0.212258 -0.641207 0.087385 -3.681607 0.670301 0.210096 1.534539 -0.240510 -5.889190 0.499469 -0.525418 -0.347249 -0.556198 1.738345 2.706285 0.921238 -1.215685 -2.048420 -4.464216 -2.277652 -2.847895 -2.254447 -0.317362 1.911726 0.437479 -2.383106 1.050592 1.598582 1.125653 2.963619 1.491825 0.823004 4.043159 -0.391837 -0.869171 -1.292469 -0.116095 0.901415 1.210909 0.464611 -0.782699 -0.160211 0.860092 -0.099609 1.333237 -0.430997 -1.932544 1.939266 0.382750 1.885507 -3.823316 -1.800599 -0.935749 -3.188991 0.287128 3.194307 -0.035767 -1.521034 0.810684 -0.475141 0.290928 -3.396710 1.319098 1.557729 0.044154 -3.671964 1.193319 1.637013 0.952526 1.143548 0.620938 0.574185 -1.144059 0.905290 0.147433 2.616750 0.140218
och 2.126920 -1.545120 1.075033 -0.202926 -1.837627 -0.083120 -0.100681 -2.898107 1.143068 0.441470 -0.635111 -1.131770 -0.092508 -2.318501 2.008836 0.168708 1.369176 -2.298146 2.197148 0.738522 -2.162412 0.808451 -1.357648 0.383232 2.130450 2.191684 -1.795320 0.136653 1.351784 -0.517529 0.134554 0.604147 -0.226565 -1.184349 0.252850 -1.135602 0.453852 0.045484 -0.511164 1.678885 0.754557 0.256222 -2.322647 1.394443 -0.972854 1.416635 -2.142920 -1.460789 1.098465 1.024981 0.661116 -0.464947 -0.443739 1.723184 0.030483 1.016494 -2.355812 0.260026 -2.564768 -2.220887 -2.513750 0.858697 -0.510545 2.065009 -0.740250 -3.232533 1.351330 0.433572 -1.950549 -0.289969 -0.533527 -0.137212 -2.080880 -1.239360 0.885400 0.214964 0.998820 0.463931 0.844856 0.933593 -0.636334 -0.615095 1.320271 0.756464 1.512239 0.089942 -0.781980 1.671987 2.174947 1.856103 2.884707 -1.462146 0.473571 -0.414503 -0.799216 0.391537 -1.121455 -1.186116 1.211260 -0.949382 -0.807803 -3.848397 -2.705715 -1.477747 -3.157771 -0.595083 1.945479 -0.695254 -0.495222 2.303068 0.226009 -0.669397 0.026374 0.462260 0.007920 0.535470 -1.561721 0.011321 1.196666 0.238834 -0.618070 0.137808 -0.304723 1.292978 -0.198670 -1.539954 -1.367862 -1.860691 0.158309 -1.060272 0.328805 -0.986816 0.929763 0.545404 -1.078019 0.455237 -0.133066 0.277997 -1.348415 -2.552511 -0.599779 -0.249608 1.191044 -1.851572 0.132706 1.700695 1.693468 1.698598 -0.223434 2.613232 3.157430 0.391851 -3.069128 -0.916306 -0.708384 -0.846071 0.134954 1.387390 0.429142 -2.048954 -5.287883 0.342169 0.971066 -3.075107 -1.124373 0.642087 -0.692951 0.167124 1.467618 -2.052791 -0.335522 -0.912453 -0.514858 -1.059125 -0.445471 -3.418421 1.574307 0.360297 -3.058777 2.491610 -0.189360 -1.724852 0.887785 -0.106432 1.802292 -0.079782 -1.413370 2.632213 1.046097 -1.114480 -1.755328 0.858599 -0.061677 1.897610 0.345817 0.284133 -0.306783 2.022996 1.459842 -0.669602 0.296880 -1.202326 2.655005 -2.201350 0.187104 -1.092914 -1.917262 3.773949 1.020064 -0.954091 -2.492449 -3.104197 -0.552662 0.498056 -0.093543 -0.671105 0.230898 -1.443610 -0.320058 0.626858 0.079898 -3.392041 -0.873346 0.176430 -0.519700 -1.579255 0.517891 -0.896329 -1.249471 2.110472 -0.895515 -4.724027 -0.670511 -0.729611 1.043821 -0.103772 -0.556489 -0.620994 2.117970 -0.459548 0.746168 -0.404192 -2.107199 -2.346827 -0.724729 -1.087484 -1.434322 0.558539 0.774284 -0.346635 0.809922 2.380247 0.387336 0.168507 -1.163813 1.659558 -0.739284 -1.232716 -0.241070 0.136019 -0.380951 1.732992 0.194426 -0.297073 0.226065 -0.287272 -0.015538 -0.318016 1.893007 -1.004887 1.113714 0.896641 1.094970 -1.320230 2.291621 2.091142 1.037623 1.570480 -1.253156 0.558179 -0.388384 1.143202 0.284970 -1.689617 -0.550059 0.517699 -1.399636 1.759255 -0.968216 -0.536090 -0.231205 -0.868775 -1.148516 -2.763200 -2.130048 1.212258 -0.142591 -1.213039 0.490330 1.582220
att 4.634964 0.834751 0.966222 -0.592261 0.118527 -1.997454 -2.288864 -4.275960 0.465262 -0.053569 -1.803217 -3.141157 0.322289 -1.749040 1.089570 -1.439616 5.075185 -3.311347 3.901134 -0.758136 -0.706219 5.083595 0.527093 1.197197 1.840527 0.319711 -2.451149 0.161665 2.795835 -0.581092 2.426536 1.244977 -1.422046 -6.759105 0.092655 -4.004594 -3.264862 -2.231919 0.071841 2.837693 -0.897178 2.012560 -3.954668 2.402122 -3.447510 0.436178 -1.858670 -2.688772 2.272511 0.426936 -1.160450 0.672344 -4.788327 5.618124 4.249134 4.715415 2.142547 2.999665 -1.112307 -0.251586 -0.103819 0.075886 -0.690067 3.549419 -3.280771 -3.738750 2.193409 4.504656 -4.713400 -0.840755 4.530696 0.071012 -2.670739 -0.372323 1.802881 2.478154 -2.754883 -3.926651 0.330404 -2.014169 0.777925 0.374155 0.260700 4.905034 -2.088389 4.073521 -3.326162 2.954031 -1.890536 3.022868 -2.512000 -0.122135 1.090910 3.461913 -0.898783 1.623003 0.990107 -6.163046 2.853789 -2.343048 0.156297 -4.455348 -3.441938 1.500657 -0.829597 1.643790 5.992979 2.105012 -0.500641 1.038628 -3.170166 2.383527 1.019889 -3.075892 -1.865558 -1.969837 2.256505 3.790469 5.654753 0.738255 -1.301302 0.022771 2.774106 -0.035648 -0.463229 -3.701772 0.234875 -1.713277 4.863518 -5.044744 0.939027 -1.549543 1.852192 3.744148 -4.856656 -2.181618 0.105724 -0.290751 1.383198 0.533455 -0.126251 1.517771 -1.380046 -4.387145 0.028265 0.237082 1.009300 3.635715 2.227973 4.131079 3.317138 2.130842 2.285295 -0.910186 3.081650 1.404621 -0.693484 -1.441355 -1.697152 -8.039600 -4.459176 3.647158 -0.306051 -6.810016 -2.605890 0.109899 -3.914973 -2.874972 -0.830104 -4.258754 -3.620789 2.555950 1.022293 -1.046636 -1.365978 -0.057685 2.036546 -0.338221 -1.745734 1.402813 -6.068191 0.818429 4.149254 -6.211553 0.553150 -0.096227 2.029994 2.143130 -0.212617 0.350905 1.899082 -1.749007 -1.260717 3.911205 1.111877 2.050105 -1.261413 3.130326 2.001248 1.175373 -2.707422 0.218679 7.363018 -0.855941 0.627544 -3.816087 0.078657 7.139243 -2.251667 1.540657 -1.225783 -0.777074 -1.873442 -2.616288 -0.303061 0.735753 -0.364937 -0.175834 -2.748588 -2.703136 -2.211460 -2.529338 -3.283224 1.490946 1.231119 -0.418084 2.668576 4.471211 -1.408532 -0.576387 0.643660 -2.041154 0.903244 -3.576232 3.357544 -4.424953 1.284674 -0.426911 -0.652337 0.926083 4.103628 -1.338178 2.259942 2.847746 0.645645 1.549971 -3.310515 3.050252 3.402347 3.311250 -0.137634 3.631375 0.619081 -0.146469 -6.764491 -2.325156 0.508698 2.673780 -2.241450 -3.895300 -0.192857 1.690162 -3.293255 0.727346 1.800978 -0.233599 -3.075790 -0.467864 1.374975 1.507376 0.490448 1.318840 -0.706347 0.388812 -0.364019 3.486016 0.906815 -1.630394 -1.379281 1.757444 -0.565518 2.537875 -0.766417 -5.751758 1.067383 0.334701 -3.372231 0.332275 -2.659396 2.223720 -0.528026 -0.373220 -1.887470 -3.138530 -2.257155 2.394949 -2.695908 -4.544351 -3.176267 -1.272068
det -0.503524 1.701004 2.127385 -3.228820 -1.617434 -3.548374 0.207409 -1.114357 -0.081229 -1.013692 -3.856486 -1.962761 1.064344 -3.122735 1.075495 -0.371672 5.421756 -3.947119 0.154219 0.491529 -3.957397 0.613545 -1.834736 -4.696224 1.949696 -1.201177 -0.039428 2.541122 -1.289845 3.546622 -0.182488 3.833769 -0.112536 -0.805587 2.477211 -4.454945 -3.377379 -1.266055 0.145355 0.355520 -3.286099 -1.189747 -3.039967 -0.222218 -2.890285 2.939866 -1.313030 -0.567122 0.405135 -0.481991 3.769603 -0.531752 -1.718670 0.542436 2.123955 2.993418 -2.363582 3.377235 -1.324814 -2.443255 0.940541 5.644158 -1.850769 0.907958 -1.137216 -5.527912 0.853457 -0.889128 -0.821762 0.702036 3.742516 -0.946479 -1.134798 2.078311 0.614655 3.650112 1.226385 1.222780 2.593076 -2.974945 0.607702 3.940734 2.995647 2.880368 0.308282 2.806631 0.282060 3.330437 0.581347 2.036721 -0.557302 2.007788 1.882094 0.598566 1.479550 -1.397674 -0.065613 -2.392030 1.382094 -0.811576 -3.531043 -3.686257 2.006906 -1.454510 0.184385 0.728250 4.431414 -0.093339 0.814141 -1.062102 -2.190585 0.642415 1.251040 0.284960 3.925193 1.037194 -1.432349 -1.232354 3.319501 -1.263416 -1.877382 2.811091 0.896388 -0.917868 3.288444 -5.446635 0.899622 0.616193 1.697710 -1.197526 -0.227282 -0.989154 0.425260 0.201718 -5.762119 -0.242425 0.601834 0.284160 -0.412381 0.011126 -0.009651 -2.874099 1.523963 -1.152470 -0.533469 0.985737 1.196414 0.283051 0.628458 2.495999 2.927859 -0.757698 -1.907921 0.560149 1.623617 0.744754 -0.754930 -1.247125 0.335437 -1.580501 -4.468022 0.929441 5.014159 -5.737958 -0.593600 2.664634 2.397214 -2.044563 -4.406199 -1.992643 0.008128 0.736840 1.039192 2.619929 2.607010 3.298517 0.151949 1.144232 -0.028051 1.676472 -0.293127 -0.135160 2.500295 -3.350975 -1.367913 -1.845244 -0.094895 -0.952680 1.129199 2.319466 -0.026583 -1.992555 -2.570716 1.388845 0.124449 -0.374026 0.161832 -1.134320 2.164893 0.029848 -0.116644 0.545622 3.843794 1.143444 1.216453 -3.871116 1.202255 0.891375 -0.381423 -0.685038 0.988206 -0.646344 -0.969588 -1.127501 -2.044150 -1.691772 2.397108 1.296217 -2.810154 1.939487 0.974185 -1.001796 -0.566711 2.092499 -1.986322 1.653463 4.017058 2.814466 -3.520572 -0.294517 -0.019579 -2.952652 0.018286 -4.176874 2.486986 -0.527462 0.914401 -3.450793 1.105772 -1.384086 3.612178 -3.311192 -0.026342 0.927649 -1.040387 1.381778 -3.042429 -0.503741 1.575926 2.189771 -1.656526 0.956904 -1.405085 3.421652 -4.197061 -1.262185 -0.478102 0.791994 -0.794415 -2.602552 1.369939 0.741752 3.283610 1.461602 -1.695410 1.030168 1.657818 0.569618 0.466150 1.088161 2.806374 1.688593 -1.740090 -0.787276 3.770918 2.276588 3.220419 -2.353857 1.128770 0.460208 2.134318 1.394862 -3.023509 0.221673 -2.742229 -0.409129 -2.382832 -0.705499 -3.896410 2.029173 1.554277 -0.205285 2.152474 1.096226 1.185045 0.657439 -0.702476 -1.643851 -0.872763 0.065251
en 2.035216 -0.154830 0.088486 -4.044974 -4.759138 5.454082 -3.682358 -3.524011 -4.438802 -0.926937 -0.460951 1.236980 -1.334829 0.221564 5.039437 -2.517865 -1.357979 -1.576021 -2.450189 -1.284996 1.428159 -3.226152 -0.915040 2.452954 -1.005822 -1.171713 -2.885767 -0.729136 0.847293 -0.477172 -2.969433 -5.266755 0.792102 -3.364763 0.205895 -2.978308 2.374336 4.520277 -0.131170 1.412468 -1.140105 0.334308 -2.189110 -5.512769 -2.054923 0.040863 -5.328841 -2.749746 -1.795708 0.481846 5.036825 -1.589369 3.064833 4.752741 -0.825757 -0.804779 1.299848 1.839213 -2.263356 -0.088287 0.110005 0.208919 3.229886 1.871300 2.695451 -4.861213 0.800445 -1.302102 2.171732 1.232406 2.626827 -1.487824 -0.202194 -2.096676 -7.400063 -0.977245 -2.902796 1.053498 3.349774 3.295214 2.839479 3.048669 1.591669 5.065984 -2.579288 1.138949 -3.323492 1.620488 -0.777867 2.869836 -1.190165 -4.806112 -0.299609 0.463762 -2.805894 0.720549 2.288718 -1.262783 6.382741 -1.745375 1.851665 0.033219 2.391318 0.168350 -5.999606 0.147421 0.910193 4.484003 1.379433 1.229005 0.475271 1.701692 -0.483669 -2.030943 1.081808 3.099796 0.619916 -1.392845 -4.447011 0.982815 -0.481177 -1.105736 -1.837972 -0.011856 -0.976229 -2.233433 0.160774 0.183371 3.551135 2.123353 0.325584 -1.290111 1.855591 0.104834 2.625825 -2.721816 3.896964 2.349770 -0.165385 -2.810765 -3.660660 0.794330 4.163891 4.008353 -1.537185 5.154057 -1.583529 2.359237 -1.626493 1.240916 -2.525658 1.440885 -1.200608 2.751934 0.545198 0.107881 2.236567 0.754232 -2.923482 -0.905331 -2.768517 -2.627242 1.394566 -4.174110 6.244430 2.723567 -0.221421 -3.252527 1.189503 -2.779511 0.762464 2.734410 -0.278358 -4.010522 6.296526 -0.766135 -0.882825 -4.613028 3.857024 -3.333717 -0.050546 -4.452354 -1.157731 -2.222283 4.481901 -4.044182 0.739823 1.637440 0.897539 2.120305 1.818824 -0.057841 1.264596 -2.325461 4.015684 -3.640504 0.698324 -3.401022 2.899888 0.568347 -3.191463 -3.896355 4.479093 0.615535 -2.687802 3.679064 -1.084109 1.580724 1.056273 -0.419195 -1.474429 0.113016 -1.625405 2.687086 -3.371845 -1.664148 -0.499174 -2.366728 -2.414471 -0.706751 -1.979098 -1.035412 -2.457297 0.886654 -1.415529 -0.239389 2.927296 2.151020 -0.673763 1.865339 3.421617 -2.786212 -0.300016 -2.856877 2.626766 -0.493808 0.792004 -4.341959 -0.761852 -2.257538 -1.503558 1.260918 -0.761034 -5.505849 -2.804599 3.791804 4.697794 1.726817 0.800689 -3.724845 -0.802247 2.993886 3.558945 6.086776 -3.021798 -0.006635 0.643114 -0.598027 4.557401 -1.166106 -2.188525 4.448319 0.231589 -0.185649 3.322649 -2.456920 -2.870784 0.996447 -1.106126 -2.549249 0.960888 -1.847978 2.095493 3.162386 3.620897 -0.453995 1.490063 3.576573 -3.211174 1.697894 -2.655779 1.522471 -3.240124 0.051189 1.604893 0.243434 0.927988 -0.985202 -1.089358 0.031102 1.698926 4.052508 0.752904 1.003929 -1.610829 -1.170042 -4.060864 -0.385536 -1.321711 3.599143
som 0.157672 -0.432212 3.373247 -1.422020 -3.289623 0.585381 -1.706980 -3.865961 -1.739423 0.086331 -0.614832 -2.279362 -0.835020 -1.590293 1.533016 0.978664 1.573699 -3.087744 1.711694 -2.723800 -1.241254 -0.184470 2.082527 1.073803 -0.404889 -1.465758 -2.198775 0.316619 0.050877 0.529742 -1.773490 -0.514968 1.468090 -2.835312 -0.103370 -1.603020 -1.385808 -0.459279 -1.273832 2.478037 2.233471 0.570139 -1.674958 1.325205 0.355204 3.050716 -2.855412 -1.100388 0.945969 -0.762686 -0.604136 -3.417695 -1.358184 2.826764 -0.861218 2.560253 -1.153231 -0.036741 0.328743 -2.762244 -0.400353 2.094148 0.562674 0.713335 0.206699 -2.996159 2.190250 -1.315630 -5.140393 3.157167 -0.430120 0.689510 -5.097747 -0.194220 1.884724 -0.030368 -0.825781 0.140628 2.583538 1.130465 1.259143 0.375160 -1.093617 0.242258 -0.946129 -1.167584 -0.675644 3.488974 2.110986 0.568311 0.633643 -1.081225 1.129173 -1.511706 -1.969984 -2.456100 2.368333 0.154015 0.837562 0.098615 -1.406393 -5.243474 -3.399945 -2.458440 -4.298312 0.182310 2.918123 1.711558 0.829663 0.001495 0.330863 -1.829602 2.096825 -0.807466 -2.624389 0.324014 -1.263709 0.809434 1.934535 2.384135 1.716714 -0.346458 1.250459 -0.459681 -0.484853 -1.188232 1.031027 -1.525926 0.960310 -3.093946 0.326539 0.200457 1.184848 -1.928264 -0.747162 0.482548 -2.485162 1.536078 -0.609731 -2.005659 -0.102241 -1.317790 2.777358 -2.433521 -3.152050 0.861803 1.659841 -0.035769 1.303133 4.353219 1.965127 2.343299 -4.652910 0.226563 0.118450 0.907162 0.777497 2.598472 -0.731606 -1.214830 -3.263810 0.065488 3.051075 -2.685987 -0.583957 1.530961 -0.214002 -1.958264 0.217869 -2.995544 -1.866829 -0.229759 0.970244 1.163499 -0.421493 -3.663669 1.024853 -0.667727 -3.628313 1.648356 -1.934358 -0.416914 2.254857 -2.806875 0.786097 -0.577335 -0.052712 4.713813 1.136276 0.909858 -2.117001 -1.204778 0.510633 -1.235754 2.800053 1.476965 -1.062130 2.973240 2.232269 2.963771 -2.145405 0.978626 4.943796 -3.135904 2.091995 -1.305925 -1.261433 3.556019 2.397668 1.493592 -0.248345 -2.993438 -1.533590 0.302000 0.390151 -0.187588 6.131642 -1.111206 -2.934736 3.965896 -1.485213 -1.973843 -1.404499 0.277873 1.853983 -0.226855 1.486176 -0.544064 -2.523190 0.654991 -0.613672 -3.772614 0.129173 -3.457420 0.976716 -1.151376 0.476575 0.195419 1.781423 -3.018485 -2.276500 -3.789243 -1.120642 -0.771126 -2.007291 -0.598101 1.576734 2.059753 1.538642 0.727877 2.477954 2.074047 2.885568 -0.477577 -1.580015 1.800002 -1.288903 0.858205 1.211288 1.046218 0.422398 2.650571 -0.667684 -0.694585 -0.514653 -0.032825 -0.376648 0.599824 2.492935 -0.689661 -0.106174 0.619028 5.409920 -0.086312 3.691607 2.825809 2.382269 2.230158 0.371182 -0.532825 -2.167692 0.184758 -0.413481 -1.607103 0.543935 0.068793 -0.581084 1.187998 -2.521492 -0.149655 -1.204394 -0.518994 -0.561442 -1.756270 0.625706 -0.304386 0.069522 -0.264074 0.410978 2.335990
på 1.886414 0.443708 1.694416 -0.779020 1.727984 -1.314649 1.601392 -1.233709 -0.473193 -0.422629 -1.155105 2.261537 -0.722959 -5.025609 0.160249 3.128368 0.079344 -0.192815 3.224259 -0.626884 -4.002738 1.307429 0.220017 -0.572733 -0.638977 0.386574 -4.021055 5.073610 2.953807 3.012980 0.908597 -1.745054 0.966475 -0.544411 0.185085 0.393999 -4.043093 0.320898 1.548452 1.915618 0.904447 2.993302 1.450177 -1.357917 1.079063 1.033183 1.036630 -0.465362 1.803006 1.460989 -1.065845 -1.047600 2.340223 1.152208 2.940899 3.881224 1.905773 2.596915 -2.850094 -0.995062 -3.415144 -1.702768 1.937022 1.525448 -3.502454 -3.894109 3.707419 3.526218 -0.213860 -2.061352 -0.626185 -2.830944 0.586295 -2.437206 3.603067 -2.220489 0.133471 -0.758782 0.965447 0.045616 -2.536060 -0.745988 -0.679895 1.515373 -0.897250 3.234944 -3.211846 -0.830634 -2.537738 -1.306941 -0.664821 -0.252771 -0.841348 -0.487023 1.886649 -4.053344 1.337476 0.797311 -1.285842 -2.115818 3.640654 0.619345 -0.782920 -1.194965 1.119507 -1.771651 0.015730 -0.880524 -5.154116 -1.635807 0.545192 0.998619 -3.969868 -7.626338 1.256786 0.446083 -1.635736 5.968801 -1.277427 0.891589 -1.126562 0.668534 -2.129320 -0.533169 -3.119447 -2.680129 0.871027 2.961436 1.421036 -3.109860 4.922176 -0.991145 -1.099227 -3.805450 -2.279212 -0.653084 -0.842354 -2.554661 -3.386796 -2.611987 -1.099753 -3.418439 4.261370 -1.446726 1.431429 -3.036826 0.603840 -3.490529 -2.437282 0.219658 1.795597 -0.051176 -4.525449 2.155644 1.676458 -2.269186 0.342895 -1.783247 3.001446 -0.621431 -2.615171 -0.171502 1.590821 -1.484619 -1.075254 0.910155 -1.924692 2.316187 2.956707 -2.029183 -3.525115 1.748628 -3.842709 1.219111 1.809844 -1.504207 -0.048712 -0.280700 -3.557700 -1.354214 5.910260 -1.960431 1.198613 1.295242 2.635782 -0.969030 -0.070139 0.282540 -2.129495 1.963393 -1.447589 0.967623 -0.103485 -1.486247 -0.910466 1.125974 1.190417 2.663296 -1.621952 -2.467967 -0.354864 3.325167 0.495474 -0.392470 0.784382 -4.955697 -1.335146 1.335418 3.475642 0.332816 -1.640439 0.771936 -2.216231 1.601838 -0.360156 -2.235381 -0.990026 -1.147094 -0.674887 -3.793799 -1.876502 -0.674357 -0.748683 0.183910 1.474413 -1.506972 3.654338 -0.074400 -0.675724 -0.837911 2.186648 -1.999401 -1.396480 1.536810 1.698350 -0.379926 -0.568587 0.297520 1.869377 1.305099 -0.430208 -1.777010 -0.868722 -0.403164 -2.765666 -1.515917 -0.868774 1.989289 -1.076648 2.008074 -1.925740 -3.943898 4.005469 0.637444 -5.080265 2.733585 -3.222102 -1.293858 0.697803 -3.376398 1.389063 -2.394267 2.368223 -1.629601 2.763789 -1.774379 -0.724808 1.133454 0.613151 1.523439 -1.269017 1.702508 -1.510091 -4.266810 0.998021 -1.942012 1.478310 0.081384 -1.619523 -2.614502 -1.012226 2.129045 -1.486213 1.598475 -1.947850 2.284646 -1.269331 0.221520 -0.487079 -0.917294 0.271115 -0.800615 -2.561128 -0.908415 1.684634 -0.631516 4.709401 0.996025 0.123116 2.389891
är -0.002383 2.210197 -2.541190 1.912330 1.238366 -2.295973 -0.568041 -0.149985 1.306920 1.199792 0.563508 0.828173 2.275570 1.909973 -2.194476 -3.297907 -0.045765 4.319689 2.008979 1.822247 -4.586986 1.002145 1.118316 -0.718683 2.202900 2.748081 1.121746 -0.170727 -4.185450 1.055751 -1.405390 0.540477 1.553126 -2.386416 3.749460 -1.557982 -0.546503 -3.230539 0.388154 2.100210 -0.439469 0.751073 -1.588474 -2.511931 -1.647842 1.156016 0.807974 1.812050 -0.709424 2.585218 0.364503 -0.270959 -4.660136 -2.038694 -0.326319 2.947362 0.983036 3.715462 0.177841 0.285112 6.150385 2.743348 -4.260398 -3.233931 2.485610 5.113860 -2.181811 -2.365483 4.768434 1.326815 -0.029515 -3.861888 -1.140284 -5.270658 2.429740 0.722451 -1.133043 -0.102016 -1.271872 1.226560 -1.152633 2.027151 1.285071 -0.033084 -2.699558 1.228106 0.742443 -1.727744 -3.683482 1.978560 -0.390547 2.748641 -3.161659 -0.639793 -2.423648 6.176559 3.350064 1.277606 -0.394861 -0.353013 -3.007924 -2.864998 2.330899 -2.511945 -1.131322 1.895755 -0.137993 -1.242052 2.431755 3.600490 1.544595 0.801067 -1.560185 -1.234577 -0.749250 0.138956 3.897372 3.901900 -0.610740 -2.967174 3.188555 -3.346283 -0.622663 -4.373786 3.196338 0.807760 -1.953436 2.301923 -1.200517 4.911904 -1.985210 0.549630 1.505386 0.997675 2.126147 2.625564 -0.582395 -0.347932 0.295280 1.534464 0.187495 -1.644655 1.976743 -2.270488 0.062123 0.676194 0.102051 0.872382 1.602568 -2.439865 1.002250 0.430402 -0.710652 0.213424 3.841919 -3.712902 -1.958800 -4.941538 2.080524 -0.361662 4.506528 -3.519207 1.262561 -0.855079 5.651774 3.093731 0.974622 0.444250 1.415442 -2.899302 -3.669308 -3.404546 7.476375 -0.473683 -0.745497 1.359272 -2.493446 -0.447537 4.690846 -3.406994 -0.587543 4.194305 0.173917 0.175492 -2.217972 -0.744533 4.753244 2.116163 0.301292 -3.118009 0.093490 0.242501 -3.007662 0.390174 3.525451 -1.384946 -1.804118 -1.441626 2.842210 -3.240078 0.583609 -0.575589 0.619295 4.538087 -3.663091 0.120586 5.780560 1.061912 -3.453835 -0.065899 1.201689 -0.550330 2.997493 2.572808 0.046137 0.033443 -0.584622 2.235095 -0.121785 -2.521819 -0.901383 -0.977843 0.189798 1.927058 -1.150686 3.894396 2.783989 1.708188 2.134518 -2.919403 2.517843 3.124084 2.247312 -3.772871 1.845026 -2.147822 1.259525 -0.691019 -2.105912 0.337934 0.861228 3.738955 6.099904 -0.473436 -6.083105 -0.649738 -0.634161 -2.664564 3.485843 -3.151223 0.998203 -0.748560 -1.289906 -0.080398 -2.029058 -4.877943 1.067265 -2.480324 1.204353 0.060148 -3.649272 -3.190791 4.003816 3.518861 -1.890480 -3.096619 -0.752194 -4.196401 0.798390 2.089547 -0.327042 -3.944954 -5.506162 -0.600062 1.263630 -6.708513 2.110131 -5.062433 1.537061 2.009197 0.814841 -0.670023 -2.869492 -0.923371 -1.684838 -1.977739 1.227501 -0.639710 0.952980 -0.656616 0.822607 -1.250207 3.634295 0.847716 -2.300717 -3.974986 -0.687379 -0.175828 -3.071791 -1.905712
för 0.035526 -0.154842 -0.936805 1.661329 1.945858 -3.074466 1.887084 -1.995772 -1.518270 2.750294 0.791432 -0.912447 -2.424375 0.157935 -2.703221 0.307911 -1.991071 2.097435 -0.633626 2.103280 -2.131212 0.528428 2.866524 0.451720 -1.258444 1.450698 -0.558308 2.164762 1.712369 -0.861638 -1.914412 -0.997477 -3.615757 -2.001885 0.688751 -2.824913 -1.465629 -0.181941 1.724987 -0.901740 -1.726923 1.662849 0.397361 4.200212 -1.805705 2.398133 -0.331768 0.545209 -1.849950 0.015390 -2.712600 -0.180542 -2.510835 -0.269911 1.258291 0.435941 -0.823438 3.036342 0.476688 -0.884588 0.169326 2.416178 -1.201051 1.814988 -1.650648 -4.356105 1.334139 -1.185466 -1.571278 -2.447722 3.847097 0.923486 0.050862 -1.076422 -2.494797 1.787173 -0.784906 2.223040 1.525350 -2.041007 -0.586258 -0.934998 0.732413 -1.120572 -1.023994 -2.804530 -0.996855 3.201199 -2.050241 -1.760052 2.944662 -2.244762 -0.629363 -1.357790 -2.265125 0.215414 0.667342 0.610798 0.744843 -1.831339 0.236130 -0.983524 -2.019593 -1.468340 3.237695 -0.182139 3.610742 1.798269 1.067034 0.967459 -2.971536 -0.444354 0.337137 1.780639 0.779599 2.732112 1.665288 2.914512 0.470408 0.075757 2.055709 1.335230 0.832595 -0.367552 -1.377811 -0.806660 -2.237122 -1.654633 1.654800 -0.590070 1.869058 -1.697284 2.290209 0.317068 0.933031 1.086400 1.085149 -1.649555 -2.315332 -2.770033 -0.030629 0.899664 1.027091 -1.663180 -2.236648 1.141142 0.081939 2.232423 -3.366290 2.590878 1.083144 -1.871094 -2.677091 1.905051 1.259384 1.171583 -1.569211 -5.419807 -2.493752 -3.085629 -2.045264 0.177231 2.192042 -6.830071 0.657950 2.654172 0.337724 0.056901 1.991658 0.852482 -0.503495 0.270769 2.050825 0.878235 1.120978 -0.873083 -1.184329 1.760720 -3.418520 0.195742 -2.368255 -4.464720 3.330085 1.121342 1.336487 1.557932 2.964756 2.685272 0.077055 1.493497 -1.823619 -0.361801 -1.142128 -1.187490 -2.357528 1.304549 0.392235 3.464890 4.197175 2.508063 1.084215 -1.604936 1.529568 -1.022753 1.506933 -3.960147 0.274611 1.683546 1.208055 0.066616 -2.031913 -1.122330 -0.335372 0.987065 -0.197055 2.519983 2.337440 1.476182 -0.583662 -0.649588 2.117168 -3.638100 0.703774 -1.287345 2.473695 -1.017683 0.042368 2.704482 -0.739210 -0.196532 -3.206340 -2.380054 -1.040333 -0.852501 3.812682 0.050605 -0.691343 0.548807 -0.690326 -1.978929 1.971363 2.367989 -0.215910 0.080289 -2.323829 0.987535 -2.625757 -2.593115 -0.041603 -0.970702 2.423632 0.032449 -1.491320 2.693583 -4.428145 -0.668359 0.326357 -1.804001 -1.508782 -3.300198 -0.317559 1.407506 2.247144 0.913698 0.627111 -0.532956 -1.853671 2.384592 2.375617 0.905029 2.733087 -0.157259 1.999748 -1.887319 3.063865 -0.001679 -2.006819 -0.705690 0.482726 -0.390226 -1.220012 0.073185 1.582906 -2.726131 -1.650853 0.051084 -2.395490 -3.100514 -2.654576 -0.137477 3.592686 1.908691 -0.413297 -2.953535 0.620149 1.604254 -3.577479 0.290088 -2.285573 -1.677868
med 2.157940 0.890509 1.360868 0.840449 0.610425 2.277410 -1.497513 0.035659 0.579644 0.544868 3.037561 -1.577991 -0.696926 0.622488 -0.805105 -0.446574 -1.899296 -3.978617 -1.242767 -0.330693 1.486713 -0.190803 -0.074976 0.033476 -0.240691 0.713013 -1.189611 1.888273 -0.121908 -3.675390 3.079000 -1.280268 2.491518 2.268041 0.649850 0.517831 3.102674 3.340866 1.802547 -0.266988 -0.399638 -2.948525 0.435710 -0.537043 -1.020955 3.100527 -2.761445 0.836457 -1.604656 1.023464 -2.009677 0.876572 2.357152 0.567529 -0.922161 0.303172 -2.942605 0.316279 -1.233027 -1.837153 -0.293591 -2.822144 -1.511996 3.143441 -0.436581 0.356395 -2.979949 1.641429 -1.024336 -0.283633 -4.342133 0.283980 -1.031117 -0.742622 0.502007 1.099225 0.585724 2.155437 2.782717 1.491512 -0.954384 0.030017 2.155856 1.006738 1.432341 -0.360988 1.020987 3.973454 1.815814 -0.949261 2.004395 2.743730 -1.619878 -3.100386 -2.581124 2.687365 1.996283 -0.113198 0.113046 -1.149598 -3.308551 -3.694360 -1.998214 2.639550 1.526097 -0.314284 1.730207 2.319916 -0.470100 0.556581 2.150662 -2.930016 -2.090709 -1.190749 -0.854328 0.469326 -0.279896 0.615671 -0.653336 2.025865 -0.545594 1.806593 -0.724088 1.063015 0.414346 -1.650966 -0.046435 -4.499134 0.016220 -2.638608 2.788995 -1.571153 -0.774086 0.640981 -2.028343 -0.054922 1.734224 -0.199065 0.833755 -1.475076 -1.016372 1.107334 -0.016423 -1.336012 1.872635 0.719518 -1.386124 2.066747 0.907124 -0.542681 1.255881 2.373889 -3.458254 1.033798 1.672747 -1.696704 -0.561063 -1.262540 1.087661 1.533332 -3.882659 2.209755 2.490185 -1.732271 1.762608 0.329923 -0.407943 0.869974 1.228215 -1.521059 -2.048009 1.204614 -0.792832 0.262646 -0.224632 -3.941903 -0.443565 0.590377 0.045425 1.626754 3.271220 -2.207886 2.050060 -0.259672 1.521578 0.774268 -0.354173 -1.294213 -5.113704 -1.653795 3.178088 0.923585 -2.211574 0.375676 -1.636379 0.905221 -4.104421 0.513048 -0.204690 -2.439470 -1.178263 3.368920 1.480942 -0.832991 2.881365 0.149150 -1.290625 0.878180 -0.445784 0.505738 -0.421631 -0.570482 -0.346927 0.783493 -0.908718 -1.415048 1.175299 -3.402003 -0.565068 1.253250 3.049278 -0.211368 -1.388033 0.246149 0.224693 0.796806 1.638263 0.865912 -1.482302 0.739351 -2.041751 -3.592495 -3.204499 -2.000393 0.859706 0.001038 -1.295123 1.515215 -2.979567 -0.997584 0.826611 1.644284 0.706952 -3.866954 -0.433951 -0.989013 -2.207578 -2.795283 -1.018478 0.542603 2.381142 -1.713811 2.294201 -1.859392 -3.084206 4.099754 0.418151 -2.153213 -4.140052 -1.989240 1.729338 -3.408494 -0.592670 -1.707444 -0.344043 -1.818912 0.281884 2.650734 2.375417 -0.590066 -1.241975 -2.136555 2.856612 1.741842 -0.781457 0.965695 0.384121 1.739099 -0.258110 1.705116 0.532786 -0.582702 -0.033855 -5.117338 -1.752870 4.879526 1.076544 1.176308 -3.337737 1.892036 3.708849 -0.453170 -1.734182 0.887086 -2.761446 0.045943 0.153896 0.673047 -2.788444 3.493158
av -1.459831 -4.559144 1.298598 3.599894 1.176986 -1.653282 -1.370522 2.144832 1.610063 -0.952314 0.697034 -1.986577 -1.020721 4.185154 3.375839 -3.285663 -1.981941 4.868846 0.522825 -1.355726 -5.595463 -1.112615 0.184733 0.363270 -1.355457 1.108209 0.180964 0.887135 -2.791727 0.280163 -0.044069 2.888378 -0.267641 2.429653 -0.501872 -0.731527 1.733727 -3.640056 -2.822310 0.569489 0.547206 -0.442260 0.303930 0.069396 2.848619 3.166409 -3.172192 -2.070941 -0.617178 0.985876 -3.506800 5.847245 3.014243 0.032162 -1.652702 1.644963 0.885561 0.485264 -2.419450 -2.088985 -2.481453 3.034685 -1.777039 1.086948 -0.121559 -5.173184 1.180594 -0.557912 -1.316529 0.673741 -4.197501 0.180800 -2.494667 4.505098 1.808464 -2.565953 -1.363183 -2.328202 2.004266 -1.653317 1.038765 -3.044271 -3.217924 0.230073 -4.415607 0.508135 0.045140 1.746256 2.697949 1.408936 0.544408 -0.894234 0.420022 -3.834070 -3.002929 -1.519662 -2.073070 -0.994054 -2.772311 1.285391 2.451036 -2.180729 1.173694 4.566698 3.143365 -0.353238 5.146903 -0.148618 -2.420009 -4.334478 -0.325144 -3.498996 0.775070 -1.729177 0.301742 1.930187 -4.057147 2.712214 -0.728879 2.580149 2.995596 -0.238137 1.723749 2.600400 -0.160130 2.404389 -1.075680 3.840720 -1.031191 0.070229 -1.855653 0.227172 2.116966 0.507227 1.789940 -0.654286 2.332529 2.162064 2.837368 -1.056084 3.571032 -1.546032 1.159350 2.017404 -0.619346 -0.236558 -3.804854 2.044320 -1.339569 1.793430 0.492574 -2.149375 -2.149740 1.457108 -1.952232 -2.271348 -3.045053 -3.981421 0.547358 -1.879436 -1.861403 2.022877 2.524051 1.833690 -4.178834 3.103651 -2.665486 -1.686546 -3.615211 -2.982816 -1.585208 -0.141312 0.268193 1.039544 -1.273150 -3.834817 0.350451 1.317767 -2.273604 1.162642 -1.556452 -0.727056 2.464878 -0.996362 1.437354 2.550460 4.109400 2.448346 -2.106045 -1.474018 -1.780077 -0.204106 2.633896 2.701404 -1.256512 0.445279 3.084387 -0.222871 -0.342822 -0.389120 -1.849271 1.550741 -4.851635 -1.569916 0.931568 0.965414 -2.793936 -2.850230 -2.405495 -0.407745 -2.576932 -1.532862 2.890396 -0.305202 2.470259 -3.202050 0.854507 0.717194 -1.469414 2.281221 -1.767177 0.466211 -0.137491 -1.155379 2.145120 -1.108381 0.661498 0.259604 -1.203952 -2.929362 0.002432 -4.210584 -0.864094 -1.961767 1.546473 -0.923386 -0.118504 0.606493 1.841317 0.912052 -2.442718 0.340174 -0.893697 -7.079914 -4.710907 0.037319 1.576711 -1.068477 2.860652 2.437845 4.318729 3.368096 0.287055 1.153271 0.902604 4.439532 2.216351 -1.658154 3.035042 -0.412473 -3.479296 0.140462 -0.939838 1.998471 6.245580 -2.649328 1.183724 1.077868 2.457851 3.756383 1.073160 -0.672071 4.338733 -1.080106 -2.770057 0.014657 3.145775 3.591631 8.067572 2.043545 -1.197512 -0.287512 1.469835 -1.130314 -2.567162 1.431953 3.746087 -0.906296 -1.233386 1.243392 1.049119 0.881797 -1.313341 -1.907542 -1.022781 -1.863609 0.071243 1.845966 -0.291843 2.005413
har 2.125147 -3.074440 6.879086 0.441515 -1.543894 -3.051958 1.236967 4.162898 8.334516 2.183738 -1.322992 -0.232168 2.635459 3.062966 -9.048558 -2.437531 1.894716 1.191430 -0.856851 -0.389427 3.067798 -0.214220 3.728431 5.526439 -0.463019 -3.137768 2.551801 1.730858 -0.698177 3.025912 -0.342355 -1.568703 -0.720431 0.327943 -1.831619 -2.207930 -1.383580 0.435841 1.369488 -2.636680 -2.003480 0.644451 2.070170 -2.961308 7.315225 0.541554 -3.115251 3.518658 1.537310 -1.126230 -3.919532 -6.781809 -4.542306 -0.880217 -3.439585 -5.291556 1.406074 0.111665 -0.196307 -4.708377 0.956617 -0.539758 1.014715 -4.799573 3.892614 4.432812 3.185524 1.132326 -1.896111 5.882047 -0.653057 -3.023035 -3.190471 -1.648440 3.140754 -4.547130 -0.960408 -3.703928 1.558427 0.941407 -1.119429 1.780024 -2.823490 -0.165033 -0.781789 -2.180165 6.882369 -0.904755 5.633016 0.503543 -4.415796 3.358165 -0.512358 0.146977 0.619104 4.924254 1.514032 1.831155 -0.508929 0.248675 -5.404359 -0.262845 -0.458516 -0.034129 -0.409393 0.884986 4.061483 -7.541145 -2.554605 -0.840478 -0.551003 1.002584 -2.061525 4.190708 2.067302 1.014167 0.907530 -0.950013 -6.689576 0.464965 6.647341 5.795886 0.598137 -1.515769 -1.528905 3.228335 4.715441 -2.557423 0.882042 2.815964 -1.625875 -4.404679 4.131232 -1.895795 1.426848 -0.589085 -5.353013 6.330729 1.305907 0.430943 0.406773 -5.503462 -4.943418 -4.735474 2.783015 3.748625 -1.718508 4.454758 2.052807 0.462715 0.665953 3.543791 4.347121 -1.523429 8.174065 1.259098 4.379751 -5.127388 -2.263519 -0.404419 5.770468 2.458082 -1.106265 2.109036 2.418485 5.173129 4.937694 -2.373156 1.357360 -2.513461 -2.080392 1.642312 3.293971 -0.036691 0.540983 -5.263185 -2.065653 4.017080 1.774183 -0.455539 4.161500 2.327662 2.718312 -1.055796 -2.827919 -1.841603 6.755797 5.150008 2.731157 -1.682144 0.846867 -0.660803 -2.405636 3.134251 5.723349 0.559326 -1.992177 0.392778 4.161293 -6.712294 -1.396321 6.728635 -3.043258 -3.140583 2.652949 -0.738332 0.041115 4.908972 3.063682 1.033115 -1.333516 -2.167050 0.633157 -2.866594 1.115000 0.501555 -1.024222 6.916538 1.607661 1.146544 -1.050290 1.151235 -1.480806 2.130871 6.159002 -2.801102 -1.024984 0.359942 -1.986533 1.818374 -0.635263 -1.263325 -1.190367 1.133116 -2.884326 3.437283 -1.560443 1.361284 -5.022246 0.351224 4.990563 6.254061 3.251439 -2.609275 -3.125570 -1.466943 -3.244894 2.771027 6.086136 4.053109 6.174961 0.327468 -0.153876 -0.533978 0.421783 1.798383 0.227660 -0.475205 1.728212 0.844037 -1.995665 -3.385741 2.902918 -6.521132 -2.644539 -1.196138 0.787490 -7.048544 2.112333 -1.964156 -2.102704 -5.184577 -7.365509 -7.666261 2.606413 -7.210364 1.794606 -0.394133 2.003395 1.975103 1.544985 6.802325 -6.222033 -1.092098 -3.841678 2.110833 2.580225 -5.539441 -5.141016 1.738093 2.947837 3.122211 1.742757 1.000271 -0.062866 1.821598 -0.560542 1.154268 -1.726451 4.475839
till -0.119674 3.379304 4.580725 1.467166 2.140848 1.072567 -0.805218 -4.449568 -0.275447 -1.636673 -2.985196 -1.573318 1.308268 2.122388 -0.282235 0.071764 -1.814716 -1.452400 -1.226900 0.665252 2.608877 2.003323 0.426046 1.347134 1.748098 0.884147 -0.130141 0.921133 3.644203 0.269071 0.491642 -2.816926 1.065344 1.521713 1.255248 1.642417 -4.022712 2.527409 -2.153561 -1.673358 -1.078323 5.060254 -4.240901 1.871770 1.611524 -0.089688 -0.079503 -1.234623 1.979742 0.910382 4.017142 -1.587014 3.205328 1.537522 2.256150 -1.588805 2.161438 -1.643082 3.280497 0.069883 -2.135034 0.025829 3.576966 1.729759 2.245733 -2.336720 2.434495 0.650861 -3.285115 -1.941121 3.409578 -2.725861 -1.153993 -3.490862 3.935938 2.805780 -1.857600 -0.686686 -1.420470 2.930417 -1.900263 0.209726 4.562459 1.002655 -0.757645 0.521724 -3.557413 -0.090915 2.265581 0.011392 1.443919 2.738590 -3.323199 -3.592924 -2.457910 -2.963964 2.681102 -2.915363 1.920831 1.919475 2.280214 5.135616 0.960221 0.160501 2.515861 -0.860971 1.368959 -1.978353 -4.238619 -0.791801 -3.423926 -0.455388 -0.274554 -2.172775 -1.977720 0.290936 -0.496872 -1.200121 -3.841822 2.676997 2.299208 2.244416 3.324480 1.759347 -3.445794 -2.926853 -0.181546 -0.886402 2.684663 -2.475961 -0.762685 -5.410223 -0.585100 0.643604 0.643988 0.534179 0.474224 -3.407383 -0.305211 2.691458 -0.407911 -0.272201 1.790301 -1.088798 -2.724169 -3.737050 -0.663396 -0.388153 -1.227949 1.028887 -2.761336 2.664921 -3.651321 2.176878 1.678933 -2.278775 -1.738300 -3.981102 -0.266198 0.536025 -4.714653 4.157048 -1.309635 -2.173917 -2.438046 2.999316 1.419173 3.005876 1.957887 -1.483217 -0.066995 1.171310 -2.630265 2.536385 0.915902 -4.707994 2.519007 -4.683684 0.672418 0.073898 -2.319614 2.304971 1.942199 5.812334 1.103742 0.637410 -1.536451 4.505013 -0.517205 -2.940077 1.688389 -2.050983 -1.366467 -1.394345 -1.804460 1.961167 -1.858228 6.726131 -0.839924 2.487472 2.247197 -3.116829 -0.830034 -1.645137 2.471879 2.004000 2.345848 -0.663812 0.921739 -2.858430 2.659318 0.399754 -1.326321 -1.705983 3.603796 2.669641 -0.914794 -3.430749 0.442131 0.562389 1.389546 -0.838139 -0.138758 -1.491503 2.144361 2.964054 0.672424 1.743065 -0.155388 0.409488 -2.455294 -4.202732 -0.526501 0.799988 2.143541 -3.181216 -4.424749 -2.635190 -1.952015 0.280428 0.500730 -1.305649 -0.310386 -4.807280 -0.579435 -2.021641 -3.233979 -0.683879 1.788153 0.468278 3.192381 2.709916 3.055369 -1.673645 2.559585 1.926612 1.290700 -4.149055 1.574551 -1.852512 -0.567075 1.192910 -1.541106 2.995810 3.279926 -1.523547 -0.590190 1.910336 0.898557 3.141588 0.957740 3.307020 2.747903 -1.259096 -0.887795 -0.855937 -0.224722 -1.524476 1.333531 4.312850 -2.099486 1.157430 0.595713 -0.289318 -2.059977 2.401798 -3.928826 2.200430 -0.671245 -0.342837 -0.251096 4.246001 0.350176 -1.483040 -1.308711 1.243089 -0.111579 -2.720035 -2.721041 0.934004
inte 6.369230 0.314398 -1.149929 0.658696 0.396413 -2.790392 -5.497396 -0.422242 -0.002360 0.654885 -2.625118 -0.720048 -1.911553 -1.122501 4.192913 3.201895 3.037205 1.014420 0.282677 -0.547278 -1.132807 -1.840899 -0.909873 -2.626495 0.758192 -0.541539 -1.203655 -3.029354 1.008556 -0.790391 -1.462978 -0.018171 1.702282 -3.406185 5.002158 -1.769882 -2.879917 -1.177437 0.693013 0.057602 2.393293 1.019885 -3.064924 -0.589904 -3.784560 -0.520953 -0.119212 -0.636205 1.893555 2.527791 -0.608789 -2.930953 -5.142126 1.964239 0.040684 7.278097 -0.110560 4.321667 3.093053 -1.941735 0.170744 4.100779 -2.558792 1.573596 -1.563810 0.910257 1.208898 -1.517168 -3.553067 -1.410149 5.264568 -1.450661 -1.016498 0.470229 -2.733133 2.811141 -0.494027 3.463570 2.333361 1.445954 2.051654 0.887159 -1.356956 4.790050 -1.140629 5.672710 1.308244 4.841479 0.393838 -0.971643 -4.731819 1.670455 1.115059 0.464159 -0.554250 -5.641157 2.989183 -2.088408 -6.061418 -0.807175 -1.118196 -5.505773 2.803884 -4.058428 0.254774 -0.033026 7.868505 0.785730 -0.745911 -0.593211 -4.405840 0.500098 -0.931416 -4.060123 1.020511 -2.180146 1.551027 -1.306426 3.942096 -1.310485 4.343445 0.023384 0.295337 0.292099 2.507460 -1.566759 1.272181 -1.559619 3.076202 -0.415740 -0.810706 1.680265 1.712310 1.395787 -7.788136 -0.598431 -0.946472 2.703834 3.797559 1.763072 2.936934 -2.701501 0.708421 -1.873651 1.075507 -2.275766 1.987032 -4.610230 -0.443581 -0.383115 0.568595 0.116617 2.352839 0.395618 0.145037 -0.781845 1.404753 3.260441 2.906071 -2.710456 -0.493922 0.495045 3.253776 -0.144884 -2.762211 3.857343 0.597909 -5.886189 -1.909912 -1.250696 -1.720387 1.017488 0.039156 0.683908 0.491728 2.208249 2.353353 -3.681355 3.119013 -1.357756 -3.647141 -1.593762 1.223244 -3.055094 -2.299837 0.983799 3.661542 1.588802 -3.104251 -2.303331 1.303900 -3.955291 -3.216159 -0.345885 2.477247 2.477045 -4.934394 1.143016 0.929448 2.082564 -0.729444 0.846269 -0.589182 -2.107557 2.447459 -2.416894 2.307214 2.412062 -1.447623 1.444335 2.469591 -0.717269 -3.771466 -5.106711 0.013091 0.332171 3.118412 -0.163256 -5.582892 0.066467 -2.312478 -1.909479 -3.360191 0.349924 0.543457 -2.893142 2.591836 1.122244 -0.544897 0.050541 3.428948 -2.119855 -0.167608 -5.753299 2.895396 -5.930736 -0.709859 -0.039741 -0.468689 1.175159 1.771296 -4.447366 -1.797205 -1.540735 0.391890 -1.829579 0.965943 2.853360 2.273155 2.111829 0.891715 1.756613 -2.663264 0.067379 -7.834859 -1.150713 1.815125 0.837349 0.017198 -0.108635 3.985675 0.487524 3.918204 2.358024 2.404807 -0.460381 -4.539423 0.544032 3.875527 -0.985152 2.172058 -2.332126 -3.934375 3.530252 1.169558 3.003968 -0.239569 -2.567984 -0.418749 -0.700297 4.186192 1.106034 -2.396948 -3.499827 -1.857212 -1.874236 -1.902705 0.989294 -4.038177 -3.057486 0.769350 -3.366181 -1.820501 2.143727 1.119349 -3.020678 -2.478581 -3.020959 -5.240816 0.603829
den -0.820652 4.892108 2.943055 -2.053854 1.615939 -2.632992 0.316795 -3.266250 -2.457688 -0.557124 -4.051154 0.608168 1.332928 -1.968212 3.072138 -0.356951 0.494853 -3.812597 1.118489 -0.327690 -2.718867 -0.656734 1.671087 0.396240 -2.198991 1.208778 3.345269 -1.918815 -3.000955 0.631927 2.226084 3.087383 -6.149972 0.402268 3.055020 -1.025502 -0.175869 0.717594 0.223394 -1.443383 0.101069 -3.188506 0.562766 0.398934 -0.683385 1.668896 -2.962062 -4.218377 -1.170133 1.051992 4.233064 -0.463365 2.103711 2.735665 -0.370409 -0.895390 2.448835 2.240287 -3.010761 -0.615928 0.386921 1.177944 -1.117401 2.196518 0.703383 -0.980260 -2.970276 1.527511 -2.156526 -2.287365 0.096356 -1.936080 -0.526495 -2.487592 -1.087555 1.108286 -1.239947 -1.288228 2.996112 0.741135 2.600916 -1.324166 1.918093 -1.414293 -1.455860 1.393077 -0.282608 6.900424 -1.531754 2.527231 -3.701711 -0.642306 4.615995 0.409369 0.516019 -2.501835 -0.839528 -5.828014 0.557355 -4.455770 0.725240 -4.892950 0.880934 -0.463829 5.092551 1.343251 5.101473 2.279505 0.255420 1.481035 1.305043 -3.278863 -2.115550 0.999671 -2.461884 -3.379174 -3.895322 -0.490041 -2.192843 2.481763 -1.044156 0.956674 1.876744 -1.359465 4.572074 -2.311932 3.910064 3.282377 4.279232 1.130482 2.896142 0.125763 0.225332 -0.727288 -0.419409 0.872995 0.974843 3.192074 -2.939959 -1.565956 1.022422 -1.658569 -0.851144 1.710415 8.092402 3.413854 6.014968 0.999743 -2.959501 1.995911 0.845118 0.222569 -3.899077 1.295927 4.021309 0.097793 -1.323613 -1.037158 0.065737 -2.866198 -3.250268 0.063574 1.915560 -3.308938 -4.115645 2.056722 0.595773 0.961849 -2.359546 0.568056 2.428313 -4.574040 -0.038488 3.251157 0.315676 -0.093973 -1.797432 -1.073767 -1.914377 -2.565520 0.562248 -0.680408 1.324843 -4.735739 0.985111 -4.565315 -4.399286 -1.724553 3.609605 1.378398 -0.620724 1.530189 -1.465806 -1.777263 0.242920 -0.808460 1.989099 -1.596403 -2.538362 1.924532 -0.442110 -1.314748 2.498432 0.401963 0.494470 0.587028 -0.970803 0.542863 4.000574 -2.067275 1.977009 2.470048 3.453038 -1.335065 0.998195 -5.034894 -1.651697 3.377733 -0.263267 0.638667 0.183586 1.429992 -0.794148 -2.282665 -2.953630 3.490131 0.736774 1.439173 -2.021386 0.363626 1.735829 -2.480497 0.491875 -4.794414 3.097819 0.767368 -2.603088 -0.632196 2.449874 -0.258715 -0.322620 -6.486458 -1.658432 -3.466253 -2.615591 0.723479 -0.199886 -1.103885 0.249652 -1.516723 0.978209 4.502655 -5.302798 0.628956 -4.106487 0.237350 -0.548408 -1.427363 2.865026 1.185844 0.787492 -2.988213 -1.259271 0.999519 2.697240 -1.652863 4.273530 1.124982 -1.192516 -1.377103 4.306294 3.251365 1.760869 -0.472828 1.427107 -0.098979 4.128020 -1.415692 1.507007 0.572382 -3.060344 1.819879 3.138834 -2.422292 -7.027150 -1.436154 -1.152561 2.436759 -0.720401 1.265672 1.378256 2.617841 5.132811 1.537363 0.824946 0.195182 -3.184212 -4.226965 2.570512 -1.939353
de 1.229291 3.229804 1.610666 -4.967268 -0.474197 -1.229843 0.476151 -1.205186 -0.905905 1.001429 -0.248430 -1.870522 -0.562136 -4.767814 -0.939876 -1.836084 -2.338274 -2.382930 2.795246 -0.215945 -5.521420 -1.138242 -0.874754 -0.913634 0.209344 1.571000 0.395060 1.440029 -0.799358 0.059610 -0.951653 3.923277 -2.760478 2.003615 2.238948 -0.182208 -1.500667 -1.429412 -3.834752 -0.864078 -0.440665 1.614358 -1.693085 3.731061 -2.598530 3.582622 -3.919054 -3.264223 -0.886833 2.290928 2.664873 -2.288451 -1.146524 4.284568 2.050217 -0.251001 -4.218756 2.033768 -1.109667 -2.454479 -0.033099 2.604417 -5.548654 3.845694 -0.418249 -3.109997 3.167473 2.952913 -1.131033 2.467382 1.275196 -2.483928 -1.521981 -0.532541 2.532383 2.380093 1.453793 3.363184 5.110870 0.310758 0.278430 0.611651 -0.497842 -0.564912 -0.251523 -0.396313 -1.210372 4.165699 0.830770 5.398221 3.051758 3.317214 1.176536 1.370327 0.234517 0.306533 -1.781977 -3.749405 -0.698256 -0.558451 1.141831 -2.794427 -1.869743 -0.506157 1.829693 0.103139 6.049877 1.110134 -0.318549 -2.244452 0.069273 1.364548 1.538881 -3.034813 -1.809990 -3.468598 -4.945202 -0.086858 -1.853022 -0.611218 0.415466 0.989477 0.733357 1.517248 2.823564 -0.988120 -1.741600 -0.352930 1.330315 -0.931487 2.227063 2.084575 -0.912438 -2.721783 -0.499251 0.415777 2.222348 3.853034 -0.385588 1.418941 1.734813 -4.643697 1.252280 -1.706994 0.516455 1.085562 4.649256 -0.300469 -0.726776 1.941470 2.695441 0.748607 -2.463958 -1.326338 -1.409659 3.293354 -2.415250 2.828343 4.432200 -0.435348 -3.569738 3.088554 -2.338404 -1.562957 -0.074743 2.664161 4.495466 -2.193333 -0.199901 -3.149687 0.291161 -0.384331 2.965152 -0.306780 3.473145 -4.118778 0.263195 2.018648 -0.269961 -0.391349 -3.886465 -0.993228 6.362099 -1.227058 0.852494 1.900851 -0.382332 -2.171031 3.633578 0.383964 -1.146685 -3.509944 -1.147521 0.588392 -1.548673 1.860126 -2.161636 -1.081913 -2.131565 -2.914287 -2.116428 -1.930485 0.867417 0.584803 -0.427132 -0.846362 -0.476786 3.685880 2.193628 -5.389439 -2.942808 -2.358808 -5.215384 -3.042262 -2.576426 -2.258297 2.387006 2.087406 -1.534843 0.145528 1.762557 -0.972417 -1.029057 -1.639768 -3.043924 -3.153658 1.778883 -0.402019 -5.054313 -0.858171 1.900529 -5.639442 -1.907376 -3.125573 -0.868443 -2.793373 -0.393997 -2.131946 3.868023 0.712824 0.367139 -3.220774 -0.125838 -1.059961 -2.933196 2.433273 -1.549736 -0.272573 7.929337 1.299653 1.628921 5.290830 -0.579005 1.368205 -3.990971 0.184726 2.853847 1.370270 -2.356856 0.055346 3.253821 -2.615690 -0.581533 0.587198 2.322556 -3.991170 1.146808 -0.256372 2.801846 2.258539 1.770832 0.702922 -2.158792 -3.520989 3.279111 4.189877 1.322787 -0.550926 0.631390 1.485238 0.495682 0.311588 0.897143 -2.476210 -3.699870 -1.896037 -2.346086 2.285891 -4.149948 -1.327940 -3.403649 2.874297 -2.032371 -1.439257 0.915220 2.656356 2.603729 -1.077817 1.172384 0.502622
om 0.404676 1.654851 3.063325 -3.115893 -0.908379 -0.099612 -2.179554 -3.906104 -3.292584 3.449793 3.737752 -4.265948 -2.618412 -3.751236 0.556371 1.746017 1.904875 -7.140956 1.195186 -1.453404 0.171199 1.648322 -0.808288 -0.300558 -4.769930 -1.650911 -3.963954 -2.224277 -0.258863 1.913913 0.324761 -2.299357 1.287750 -2.897936 1.983982 -1.431001 1.202665 -3.361737 2.914363 -0.143058 0.107208 1.526254 -3.248631 4.100860 1.174794 0.053722 2.811687 -0.484714 0.148331 -1.385545 0.760232 -0.643821 -4.412300 -0.054361 2.192891 0.740896 0.480840 3.168332 0.559251 -5.320510 4.754644 0.239997 -0.136324 1.673751 -1.593043 -0.658587 0.578475 -0.071030 -5.737342 -7.501315 1.821046 0.121941 -4.557906 4.639312 2.153797 -3.399254 2.792497 0.883273 1.630978 -1.723062 -3.030809 0.050482 -0.529088 4.100561 -1.018578 -1.360573 -1.437688 6.536016 2.369645 -2.100066 1.631681 0.888782 2.110926 3.797007 1.973725 1.235984 3.549578 -0.587708 0.464103 -1.258810 -2.032368 -2.470510 -1.622131 -0.786834 0.946334 -4.910058 2.933081 -1.363773 -6.639524 1.624836 0.192813 -1.583030 4.594436 0.711953 -1.575519 0.056963 -0.974300 -1.345997 3.662116 0.675599 1.041772 -0.166868 -0.055484 1.738682 0.323717 -2.465052 -5.974369 -2.534753 -0.111463 -0.060784 -0.175759 -0.680065 1.726463 0.185235 -2.144140 -1.593637 -1.341563 0.057447 -0.355287 -4.027567 0.503400 0.830359 -0.837416 -0.858673 -2.417592 -1.866324 -2.347958 -2.049624 0.972549 3.030123 0.419010 2.224402 1.905811 0.317481 4.641166 0.417244 0.763597 0.205252 -2.671289 -2.021967 -3.889014 1.138305 3.460868 -5.582242 -4.100426 0.890920 -2.235936 -1.869407 1.685567 -3.840866 -3.255603 4.408654 3.752213 -1.719757 2.282718 3.151290 4.947894 -3.131783 0.632236 1.681206 -1.772290 -1.133165 3.555338 0.684761 4.196505 -0.088215 2.955960 -1.943026 -0.145613 2.693363 -2.703770 -4.259618 2.832957 -0.580190 1.068055 0.321743 0.215562 3.657892 2.341591 -2.354985 2.948813 -0.685157 -1.108038 -1.324873 0.297633 -3.986618 -0.237943 3.013485 -2.090292 -2.884917 3.226239 2.094645 0.603962 -0.716290 -3.049399 -0.133263 -0.716075 -0.892632 -0.296805 -1.062101 -0.998310 -2.424902 -2.375143 2.213021 -1.097027 4.537885 1.103063 0.583084 1.006254 -1.126968 0.208807 -3.797024 -0.308332 -2.602431 -1.392741 -3.389308 -0.819954 0.873474 4.004874 0.701677 -2.612187 1.813166 3.117390 -0.528966 -0.682924 -1.497379 -1.588946 2.117477 0.892630 0.467611 0.974100 0.006675 0.527064 -3.536247 -6.019051 -0.148037 -1.062465 1.643701 -4.369753 1.455863 -1.772163 -2.914389 -2.149461 1.862329 -0.986305 -3.078774 -0.672437 1.879310 1.138351 1.710316 0.903297 -3.896061 0.613242 0.933150 0.687100 4.018887 3.865302 -0.900557 4.620875 0.562379 0.949800 1.869492 -1.880633 -0.254752 -1.644480 -0.830312 2.505284 2.399032 -6.181090 -0.517069 4.110284 2.124759 1.980626 -3.338336 2.028023 -0.346108 -3.084927 -1.395898 0.671201 -1.160746
ett 1.442264 1.233506 -2.001558 -7.408635 1.265983 -2.097599 1.892467 -5.341866 0.681888 -4.885421 -4.067075 -2.544248 -1.571625 1.797135 3.217364 -2.185534 -1.150208 -5.424770 -0.896494 -5.243320 2.326014 5.332703 -3.980426 -6.766995 1.753383 -2.890829 -3.671338 -3.217371 -0.519311 -4.232544 -3.388474 3.942406 -4.255698 2.493576 0.370918 -0.220290 -3.005173 2.340796 -5.545854 -0.801462 3.418567 -1.465713 -0.677693 -3.355655 -0.405398 -0.228592 -4.850188 -1.824485 4.515594 0.155679 0.792575 -6.342537 -7.113541 -1.889448 -0.869369 1.209088 -7.285264 -2.692912 -2.362669 0.041236 1.964251 -0.424286 -0.233273 2.041931 -7.046831 -2.096706 -0.237883 -1.480705 1.777504 2.645824 5.798935 0.472974 4.311101 -1.991565 -5.083699 0.799300 0.050541 -0.047234 -1.696531 -2.486877 -0.726072 5.757143 4.349444 4.403569 4.274061 2.478552 -2.790695 -0.151435 4.106654 -4.098181 1.342700 -3.374140 -1.792578 -1.554235 4.507335 2.426822 -0.020637 1.473321 4.188773 -3.638145 -0.767180 -3.130466 0.849890 -0.659065 -3.597198 0.957005 5.332094 -3.581993 -2.095871 0.789030 0.515562 1.055237 1.657120 0.912450 3.340668 -5.399914 -2.080498 0.763126 0.788088 -2.327807 -2.397501 -1.523206 -7.139851 -0.483366 3.508278 -2.900959 -2.178064 0.321185 -1.699084 -6.750527 -2.718898 2.691306 1.314225 2.984120 -8.108302 1.396164 -3.048403 -0.813895 -2.820829 -1.897677 -3.890302 -0.353629 1.409655 2.493578 -2.934307 0.902123 4.311088 1.174772 0.352550 -2.718749 3.977463 -2.656410 -2.353450 -2.872997 -1.606503 -4.559282 1.586566 -4.822639 -0.197187 3.059962 -2.527270 2.122483 1.424121 -3.255887 0.138105 -0.453125 2.331789 -2.817898 -1.995244 -2.006439 2.156533 2.754386 6.659719 4.346775 0.112734 1.503119 -0.878670 -1.954022 -5.289008 1.590575 3.187036 -1.833970 2.690600 -0.745949 -2.633304 2.170576 -0.494493 2.154638 -1.473387 2.364686 3.806865 2.423996 -5.934777 6.215445 2.253890 4.901921 1.040692 2.704428 2.212561 2.995767 -2.236428 1.850639 2.516139 -1.001286 5.277847 1.322034 -6.201605 -1.580931 0.634940 -1.999927 -1.334561 0.905565 -4.156269 0.236767 -1.825568 5.184680 2.114725 -8.778495 -0.316232 2.374323 -1.908746 -5.460712 -6.441972 0.597417 1.268324 -0.309840 2.936571 2.651243 -2.008471 -0.361969 -4.978696 -3.404372 4.948699 1.973956 -0.594013 6.375987 -0.925798 -3.639308 -2.261432 -3.526666 -1.767437 -0.360020 -3.920375 1.710570 -6.218829 -1.857127 -0.788929 0.633061 0.725028 -1.274919 1.357835 2.502234 3.714775 -1.101760 2.651380 -0.284106 -3.084087 3.151259 2.559872 -0.367432 -0.841855 2.331061 1.330896 1.501301 -1.131760 1.454948 2.075589 2.989061 0.493793 0.292127 -4.318072 -1.820362 0.452976 -3.787871 -2.129813 -4.975025 3.804253 -4.357521 2.526906 -3.255189 -0.067081 2.035845 4.013940 0.898272 3.723238 3.037389 -4.051908 1.063632 -2.495130 -3.970933 3.282292 3.191791 0.270276 -1.351655 -3.468502 -1.228641 2.441674 -1.774551 -1.527143 -5.273284
jag 6.037510 0.975945 -0.764292 -6.438385 -1.331638 -1.554782 -3.766639 0.683998 -3.587809 0.917407 -3.898454 -3.077992 1.066263 -8.026767 0.176032 -1.287130 4.287974 -3.517403 1.540158 4.904505 1.772197 0.938449 -7.525123 -0.448008 1.996461 1.828714 -0.298333 -1.666043 1.272106 5.527787 0.478636 5.177917 0.806576 -4.513713 -1.450915 2.941373 -3.710536 -4.602933 2.174736 3.482773 1.650733 -4.336789 -5.472594 -1.631826 -4.096958 -2.306212 -6.130273 -1.254326 6.353753 -1.919253 9.640398 -6.304065 -1.049836 4.367933 4.816696 3.327505 0.023795 6.544667 1.844213 -2.053291 -3.700174 4.933951 -2.872448 4.366269 3.476848 -4.244018 2.251310 -1.235485 0.476444 6.054850 3.986559 0.111896 -2.251314 -4.312040 -0.714137 2.124792 1.476733 4.391370 5.881538 -1.602371 -3.397480 4.394490 -0.734894 0.264374 -2.104779 3.242243 -1.636859 -3.386214 -0.444669 0.794187 1.663416 -3.150847 3.783324 2.113978 -0.374494 1.959309 -1.345771 -2.441022 -0.895584 -2.939934 3.304328 -5.420150 -2.739337 2.134254 -6.073526 -5.944707 -1.186735 -0.235822 -2.896112 -0.974112 -2.130448 4.676751 3.171170 -6.931701 -0.064494 -3.022709 -5.884655 -3.522385 1.385905 -1.366319 -0.091180 4.637087 -2.524588 0.537709 3.927988 -3.584791 0.864204 -1.740802 4.066551 -0.867373 1.884935 2.278160 2.007000 0.804029 -1.098328 -2.355314 0.675247 -0.063937 -1.892812 -2.114758 -4.528570 -5.439907 1.004953 -2.151284 -1.266161 -1.415419 0.021856 -3.184753 -0.392159 -0.264674 6.942121 -0.256758 -3.992354 0.167703 -5.870610 2.924806 1.224994 6.945625 -1.625039 -0.993552 -2.553152 -0.655094 1.528014 -6.278254 1.754320 3.007392 2.078337 0.525415 1.888004 -6.262437 -0.844460 -1.934232 3.681182 0.284522 3.584509 1.649623 7.481814 -5.734672 -1.366795 -0.383884 1.520770 0.428180 5.710808 -2.568589 -3.725087 0.283266 -0.760744 -4.958835 -1.336675 1.748376 1.505775 -4.906699 -1.252466 -3.384962 2.785712 0.976927 -1.697478 -0.464379 -0.647583 1.030438 -6.826048 2.630143 2.718745 -1.215634 -0.229636 4.785529 -2.227773 2.288541 2.816023 -1.211118 0.242397 -4.036602 -4.161693 -2.502112 0.975865 -2.370238 2.935814 3.201433 -0.706761 1.391978 -0.731747 1.956254 0.504358 4.207596 -5.246575 -3.702464 3.144589 -1.793657 0.641136 0.574098 5.313445 -4.909750 4.686018 -7.583134 -0.030766 -0.595089 -1.858136 -3.529248 0.747134 -1.344634 2.072595 -0.081542 2.647606 -1.356570 -3.568288 1.854830 -2.341671 -2.307397 5.264227 3.095106 -0.436736 -2.157554 -4.279638 -2.410754 -6.969087 -5.695642 -0.041497 -2.680204 2.058372 -1.986984 4.113278 2.944378 2.863490 -2.857104 -1.457630 1.856805 2.807837 -0.445123 4.529553 4.827642 0.910769 4.356811 -3.055621 1.424686 4.211340 8.310142 2.956774 0.854963 -0.992857 1.417051 2.911151 -4.295463 -5.696610 -2.562092 -0.087735 -2.298248 -4.801691 5.080582 2.390462 -7.825203 -3.721105 -1.897093 -2.649780 -2.660511 0.802666 -2.917634 -4.426572 -3.646322 2.765090 2.422441
men 4.395171 1.370084 2.921073 -3.342244 -3.700904 -2.923437 -0.038537 -1.517173 -1.087620 1.450757 -2.704716 -0.380311 -0.640999 -4.598034 1.495334 -0.803963 4.925320 -3.551702 3.956763 0.307533 -2.902334 2.299562 -2.626086 -1.823908 0.015080 2.640956 -0.346372 -1.452188 0.175049 2.775929 0.616325 0.896253 2.412694 -5.346799 -0.336539 -2.440295 -3.967604 -2.226038 0.112315 2.575061 2.298949 -0.458283 -2.139132 1.770831 -1.733400 1.704610 0.646050 -2.133860 1.526082 -0.595482 -0.217323 0.384442 -1.110868 -0.234491 0.776360 1.081480 -0.538230 1.479036 0.888346 -1.267367 -0.080888 3.577698 -0.296484 2.082107 1.087057 -5.086503 0.697515 -2.465173 -4.677175 1.927517 -0.687857 0.318903 -6.224840 -1.082945 2.952642 0.456660 0.446414 0.965025 2.903568 -2.140468 -2.491897 1.536625 3.369756 2.557657 0.725191 -1.083313 -0.100785 2.638974 -0.774225 0.311275 -2.039381 1.516191 3.072491 -1.013729 2.458916 1.467892 -0.460603 -3.564679 0.980949 -2.532712 -1.338157 -3.581799 0.510495 0.022074 -4.279789 -0.363374 3.033674 -0.629282 3.372576 3.036233 0.220422 -1.137893 -0.593170 1.343875 2.725544 1.841457 0.925153 -1.317785 4.642366 0.525621 -1.679698 -1.009123 2.309897 -0.230677 2.967592 -2.750874 -2.785520 -0.873420 1.443428 -2.243352 1.180389 -2.096978 -0.227163 0.874878 -2.077680 0.762948 1.850001 1.005445 -2.354462 -0.400463 -2.079530 -2.273477 4.510033 -0.122978 0.857975 -0.350197 -0.316886 -0.672430 1.767428 2.233604 5.324075 0.462918 -2.838159 0.321846 0.520248 -0.777139 -2.573603 -0.395242 2.185352 -1.786782 -6.343668 -3.042171 2.145251 -6.066804 0.453956 1.960507 -1.239642 1.649188 -1.006750 -5.902558 -0.184100 2.159443 1.586227 -0.765946 -0.944398 0.601511 2.183412 -0.429569 -1.124285 3.020104 -2.268958 0.817262 1.661059 1.815183 1.593164 -1.503149 -1.421408 0.407368 -0.412718 -2.750798 -4.114118 0.319762 0.188855 -1.800806 0.067670 1.579645 1.282599 2.128842 1.976918 -0.776892 -3.910941 -1.069963 3.165228 -0.897629 2.219306 -1.778431 -1.441147 6.877361 -0.512991 1.332596 -2.182111 -4.087807 1.199073 1.331953 2.321431 -0.111545 3.177986 -3.260008 -3.506454 2.652241 -2.448635 -3.394266 0.650152 1.133920 0.001549 0.444186 1.936822 -1.706305 -2.523948 -0.434067 -1.811245 -2.245283 0.406866 -4.044528 1.115165 -0.048292 1.116369 0.184534 2.615201 -1.476269 5.417923 -1.231480 0.308145 0.321855 -0.578937 -0.614880 -2.485116 1.419330 3.255255 -0.575931 2.442192 0.868495 -1.892810 -2.237545 -4.548381 -1.727787 -0.292155 -1.133032 0.469954 0.965248 -3.597799 1.256758 0.037979 -2.246343 -0.893304 -1.110029 1.163529 0.352497 2.085550 1.307074 1.108686 -0.463713 2.223844 -0.387648 3.023304 4.423395 4.610474 1.234980 0.747568 1.184171 1.267396 -0.463137 -3.099253 -1.691451 -1.101130 -1.418559 0.931046 0.680757 -1.958808 0.402681 -0.383143 2.221253 -0.785474 -2.490466 -1.008794 -0.780007 1.119083 -0.182611 2.798093 1.394081
han 5.405262 0.266320 1.157112 -5.028826 0.963991 0.238251 -2.880250 -3.636472 -1.758429 0.040656 -3.966551 -4.993751 0.561613 -6.119267 0.358462 -3.027745 2.404582 -1.039234 0.690064 3.824493 1.480927 1.114992 -5.743819 -0.203317 2.813059 -2.277906 -3.019720 -1.196600 2.504353 1.881412 -1.609242 2.558192 -1.605441 -0.959765 -3.095071 5.053285 -4.838331 -2.351028 3.227920 1.333655 2.477649 -2.652518 -2.980521 1.718425 -0.255708 -2.389710 -4.798901 -0.672865 3.189283 0.157509 5.010481 -2.219579 1.555178 3.658983 2.595529 0.939828 0.249599 0.671011 1.211065 -0.187461 -2.279370 0.744352 0.111208 4.985310 0.720059 0.172535 3.800116 -2.938184 -2.687512 5.443927 1.718269 -1.189718 0.439576 -2.526707 -3.190081 2.888749 0.605312 3.068424 3.082680 -0.355881 2.027707 3.535612 -0.783275 -1.064495 0.825003 -0.407310 -3.280731 1.683738 0.693711 0.114655 3.104091 -2.084062 2.542344 0.601978 0.922647 4.644928 -0.979729 -4.201331 1.025647 -4.151443 1.546196 -3.714396 -1.598300 0.440312 -3.910508 -2.696424 1.449966 -1.276163 -2.811467 -0.231017 -2.103736 1.293621 1.694381 -2.389805 -4.754610 -4.583425 -6.348429 -6.132055 -1.354892 1.264241 -2.837627 1.829700 -1.827536 -1.748577 0.491130 -1.163974 0.534566 -2.364479 5.609151 -2.568515 0.688458 1.897317 2.097831 -1.263876 0.599461 -2.176891 2.711728 -0.379318 -2.194943 -3.079161 -3.306366 -2.567773 1.801411 -1.379157 3.291105 2.027880 2.469165 -1.457935 -0.140331 3.326164 3.614486 1.320755 -0.984845 2.805084 -5.427862 2.284700 0.159372 3.902165 -1.159871 -1.737767 1.707807 -0.457532 0.603281 -1.876364 2.249762 5.113202 2.684011 -0.165758 2.462517 -3.813557 -0.299748 -0.094544 4.144576 1.372065 3.958666 -0.523130 5.323499 -1.849459 -0.986903 -0.260638 0.787355 -1.703897 1.819408 -4.291823 -2.022213 -1.385894 0.223863 -3.434407 -0.124531 3.262770 1.367598 -3.502579 -1.292530 -3.891756 0.806105 2.601117 -3.510530 4.828378 -3.228095 1.925450 -1.629927 -1.248129 3.809326 -3.248833 1.840556 4.098167 -1.092441 3.393557 2.628696 -1.619066 -1.605892 -1.736056 -6.182238 -0.402186 2.082663 -5.174766 0.457221 2.410081 -3.747420 1.873758 -0.571744 0.080852 -0.188041 2.922579 -3.351214 -3.051837 2.813601 -0.761604 -3.000086 0.060302 4.658805 -6.515095 3.394069 -6.002905 -1.374074 -1.244936 0.977054 -1.577895 2.186605 -2.915343 0.026232 -2.556053 -2.834388 -1.714645 -2.894961 3.266937 -3.213695 -1.914427 2.428600 0.535225 -0.302406 1.606234 0.310267 -1.855380 -4.834694 -2.644016 2.400599 -2.805206 -0.109390 -1.255597 0.965466 0.498723 2.924338 -1.608583 1.140503 0.361442 1.481161 0.930761 4.147687 2.192766 0.909044 4.096528 -1.444348 -0.416686 6.149469 5.699142 -0.514426 0.794372 -0.578663 -1.267915 -0.930564 -5.484120 -1.475559 -1.665951 -0.038941 0.357297 -1.021464 4.353810 0.729687 -2.784272 -2.215829 -0.103281 -0.893854 -3.536898 2.738708 -4.395581 0.283781 -0.661362 1.575927 0.589840
vi 3.531418 1.519484 -2.341815 -6.984257 -1.428752 -1.080508 -0.375318 -1.028145 -1.477409 3.448984 -2.067881 -6.173570 -4.027104 -6.599474 0.895744 -0.411962 1.618300 -1.171534 3.012732 1.951230 -1.916964 -0.421096 -1.983895 -3.024394 2.705223 1.565108 4.259414 -2.122567 0.994967 2.722947 2.516416 4.579937 -0.847908 -5.780898 1.678989 -0.623925 -1.983114 -4.937702 -1.757604 0.442728 0.760898 -1.109784 -6.423180 -1.856029 -5.620096 1.879810 -5.819041 -2.535927 2.967404 1.840382 7.385928 -6.202990 0.665484 4.790110 3.690860 -0.971376 -3.234593 4.466948 1.660254 0.455020 0.423151 3.119616 -5.001567 2.507236 0.524825 -3.821898 4.480823 3.065767 4.589494 4.214808 4.235857 3.860245 -2.610705 -2.733967 1.264015 4.002718 -0.472579 2.951743 7.411783 -2.582928 -3.653778 3.250679 0.210188 2.490651 -0.869143 3.412486 -3.774288 2.582384 -0.444053 2.897402 6.501644 0.452321 2.907762 1.892895 0.560298 -2.060852 -1.546276 -0.806010 -0.776177 -0.581634 -2.208856 -4.863656 -2.638206 1.221987 -3.936337 -5.852463 0.861452 0.112175 -1.665327 -4.327603 -2.017254 4.149844 -0.680763 -4.824500 -1.264148 -2.018405 -2.682314 2.035171 -0.379289 0.737749 3.076138 3.156241 -3.533127 -0.716368 5.575573 -2.398813 -2.000134 -4.691205 1.872778 -1.370368 2.995696 1.383484 3.073433 -2.782030 -1.527162 -1.130903 2.929983 0.381483 -1.002888 -0.123639 -3.835757 -4.955696 -0.784509 -3.995246 -0.329026 -2.687696 4.253967 1.162910 -3.218748 2.090775 3.372061 -0.602365 -4.297361 -2.615444 -4.990873 1.092665 -2.938726 6.258164 -0.141559 0.278347 -7.803838 0.397888 -1.170283 -5.416337 1.201285 2.200938 2.650016 -0.820845 -0.205059 -4.603976 -0.228995 -0.283305 3.240330 -1.653041 2.900258 -0.931254 4.833369 -2.103723 -0.203821 3.384619 0.242726 -0.397413 6.069650 1.623150 -5.249109 2.170422 -3.991927 -1.118162 2.530493 2.567806 0.844758 -5.512172 -1.502905 -1.898898 1.050803 3.245673 -1.526693 -2.600871 1.456334 1.622648 -2.520679 2.319030 2.331317 1.242462 -1.578916 5.735099 -1.146712 5.323327 3.200470 -3.390559 2.602345 -3.276585 -1.421059 -1.887719 -0.453585 -1.581744 3.048252 0.162875 -4.185565 -1.192538 -2.578796 -2.269087 -2.162824 1.043989 -3.541286 -4.244739 3.017371 0.965997 0.849002 1.073906 5.260261 -6.115252 4.615742 -3.952058 -0.352876 -2.401803 -0.660583 0.891799 3.051192 0.187117 3.729153 0.148659 3.330164 1.523798 -0.297512 -0.101327 -2.636971 0.740896 5.185385 2.241800 -1.825887 0.355126 -1.362463 -2.400349 -3.575714 -2.203453 -2.270953 -1.466743 -1.256070 -2.768254 1.568262 0.152292 0.261846 -3.691743 1.654976 -0.257996 5.718830 0.889196 0.933673 3.226893 -1.828707 2.115659 -0.960049 2.514364 4.290393 6.902421 1.796609 2.193181 1.363225 -0.758792 5.101818 0.385249 -3.932172 -3.426375 -1.153881 -1.344311 -5.515249 1.902797 -1.987656 -5.538556 -5.373185 -1.017298 -1.611604 -2.178408 -0.451314 -1.433686 -3.556907 -2.763011 -2.159823 2.658177
var -0.249738 -0.815675 -4.601938 -1.063044 0.926880 0.050336 3.730224 0.593068 -1.617818 -0.768745 1.231507 1.039002 2.688784 0.920505 -1.339340 -2.688199 0.500954 1.858425 0.268194 2.324032 1.466334 1.871171 -1.699268 1.260082 1.278699 3.143131 1.341814 1.830036 -3.919176 0.803245 -1.041032 -0.302886 3.216444 -3.548512 3.693760 0.654617 1.190860 -2.682254 -0.271979 -0.126657 -1.656842 -1.779382 3.225396 -4.088778 -2.503484 0.572935 0.233972 4.403372 4.344904 -0.698879 -1.665471 2.358014 1.235621 -2.533839 0.447903 2.165308 2.012604 -0.166721 -2.620068 4.476419 4.086565 1.728204 -4.672439 2.849843 2.306113 7.850973 -2.503141 -1.016749 5.479980 2.708297 -0.264645 -3.787043 0.617144 -5.283869 -1.562178 1.935117 -0.191803 0.687796 -1.275049 -0.616873 -0.076480 -1.646707 -0.090289 -1.876589 -0.108211 -1.681086 -3.961358 -5.315519 -4.279187 5.141623 1.250022 3.364994 -1.904298 -0.333153 0.750228 6.394817 0.101691 0.921694 -0.800016 -1.206613 3.196778 -1.443433 0.105350 -2.020697 -5.423994 2.082163 0.029779 -1.330619 1.083969 5.049032 0.030935 1.016511 -1.138198 -0.568057 1.399296 3.546781 2.126770 -3.554828 0.453147 0.129967 -1.241239 -0.095463 1.260357 -5.044083 3.150167 3.824800 -2.268285 4.242279 -0.472038 2.097855 -2.137372 2.069549 1.060825 0.625218 3.078249 -2.545126 6.067385 -1.221950 -2.796005 0.278679 -0.385335 1.198800 2.768933 0.591970 2.320772 0.135434 3.290457 -2.533592 -0.312250 -5.642554 -1.227090 0.635655 -0.318457 5.349204 1.736069 -1.870102 -0.958783 -4.914984 2.039844 -1.319142 6.010863 -5.650166 0.749365 -0.710507 2.998705 3.304405 -0.439492 2.356627 0.775782 -2.500257 -3.723289 -1.506455 4.796467 1.927715 -0.598340 5.334664 -3.073481 -1.431128 5.087921 -2.538390 2.695776 5.141763 -2.090758 -0.107867 -0.654802 -2.183310 0.047724 0.638312 -3.998326 -2.408914 0.992504 -0.187007 -1.863168 -2.512712 0.898697 3.553915 0.423802 0.552751 2.252399 -2.731969 -1.466183 -0.308340 -3.488055 2.039402 2.631572 1.727710 3.026461 -0.908931 -3.749691 -1.887925 2.299997 0.143518 0.717772 2.832033 4.913520 0.790342 -2.750680 3.830811 -1.453077 -3.080674 1.966731 1.891830 -0.372774 4.048267 -3.140637 0.549363 2.068164 -1.091305 4.292216 -1.874025 0.579426 2.795999 0.579449 -3.682587 -2.396317 -2.446887 2.212231 -0.333195 -2.221142 2.073028 -2.182091 -0.999012 3.934243 0.180279 -3.387219 -0.440227 -3.531809 -2.102767 1.620077 -3.627843 2.563294 -2.298668 -0.247236 0.925901 -3.472514 -9.319366 2.562818 -1.594748 6.620811 4.587057 -2.324710 -2.127878 1.616698 4.634408 0.535784 -2.458985 -1.996548 -0.230846 -0.638918 3.399702 -2.179551 -0.663877 -4.557880 -5.824491 -1.337217 -2.504583 -2.517346 -2.865861 -0.381193 2.264445 -1.624278 -6.026648 -2.252925 0.488416 -1.444085 -2.606057 6.089081 -1.016568 4.574739 -1.383077 3.491161 -1.823041 4.859475 -1.054361 -0.862491 -7.191185 0.828203 1.026368 1.923573 -2.455319
– 1.651562 0.288834 -1.384630 -1.279756 -1.691265 -3.166770 -1.129351 0.031947 -0.887471 -1.342018 -1.598755 0.452182 1.357458 -2.659330 1.740928 0.267405 3.472369 -2.687534 -0.715597 -1.663674 0.827208 -0.359581 -1.502573 0.201345 0.028379 2.354797 1.448571 0.050288 -1.197937 0.600362 1.160857 0.438570 0.695299 -2.568723 2.022675 -0.944907 -1.094583 -1.658209 0.472131 -0.805082 0.960784 0.846716 -1.987242 -1.691347 -2.370678 0.382290 -1.790416 -0.687126 -0.555619 -1.083384 2.309133 -2.200592 0.342427 -1.633206 0.760274 0.972380 0.647687 2.210872 -0.109729 -2.008351 -0.080101 3.123465 -0.618506 -0.604479 2.804707 -2.426024 -0.121452 1.594165 -0.163897 1.435504 -0.598545 0.381402 -1.844726 -1.136895 5.247260 0.762823 1.544070 1.071555 0.562340 -1.417865 -1.906798 0.432077 0.508097 -0.763912 -2.195175 1.533122 -0.421007 -0.212747 0.536941 -1.424270 -0.753711 2.361384 2.659640 -0.067667 1.199807 -1.728459 -0.520992 0.257020 0.008757 -3.061855 -1.709138 -0.690360 -1.014871 1.794203 -1.671867 -0.716576 -0.524644 -1.330640 4.138854 -0.965399 -1.935400 -0.138192 -0.727502 -0.626192 0.284445 2.536789 -0.336185 -2.553358 0.931308 0.309516 -1.717416 3.316587 0.512313 0.924758 1.459753 -3.044555 0.192569 -0.233409 0.121035 1.038850 -0.664161 -0.779282 -0.910413 -1.004560 -3.151641 1.416184 -0.041195 1.218170 0.500425 -1.077024 -1.090444 -0.561296 0.236655 -0.218863 -0.459557 -0.464296 0.722931 -0.136823 -0.430815 -1.953353 2.325974 0.629817 0.634634 -1.487988 0.936875 1.094649 -0.260962 0.372236 1.457563 -1.498980 -3.268769 -3.816627 -0.345138 -3.507681 -0.315356 -0.931390 1.270976 0.202427 -1.383643 -2.497485 -0.897216 3.216999 0.257265 -1.179823 -0.754670 3.418487 0.330395 -1.844090 1.473050 1.258225 -0.696172 1.658401 3.262105 3.524830 -2.218022 2.203214 -0.162292 -0.469590 -0.216818 1.464478 -0.079445 -0.317538 -1.430505 -1.101583 -1.162614 1.996036 -0.392403 -1.811028 0.615452 0.169377 -2.113173 2.186062 1.114076 0.085192 0.749573 0.174107 -1.392996 1.592966 -1.244755 1.462491 1.715298 -0.295429 4.091357 0.524608 2.231968 -0.656880 0.907457 -1.814367 1.124537 0.916233 -0.619971 0.350288 0.538373 0.472609 -0.314913 0.224718 1.745283 -0.369894 -0.003652 0.538870 0.054616 1.333705 -1.890438 -3.933772 0.842910 0.308518 1.680181 -1.424975 1.516394 -0.460685 3.441543 -0.671909 1.770497 3.595007 -0.299460 -1.522740 -1.247273 -0.822342 2.905436 0.532833 2.301422 -0.367909 -0.732683 0.730343 -2.741758 -1.752956 -0.847039 -0.954150 1.421901 1.683998 0.064452 -0.331746 0.366703 -0.628156 0.108258 2.481862 2.782031 -0.792950 -1.438024 1.542929 2.480257 0.722338 0.567119 -0.094661 2.342737 3.848686 0.558319 -0.156886 -1.609234 1.197392 0.622802 1.749403 -3.876810 -1.626433 -1.396802 -0.803552 0.470833 -0.381181 -0.534272 0.629871 -0.786030 -2.089268 1.676699 -0.736465 -1.273027 1.030280 -1.421751 0.942868 0.468410 1.314489
så 1.525932 0.498788 2.989357 -3.534073 -0.828092 -1.585845 -0.521115 -0.277509 -0.599097 2.832368 -2.499775 1.509138 0.062845 -5.666491 1.699960 0.337345 2.748685 -3.434807 1.705930 -1.020720 -1.603912 0.229701 0.936235 -4.583662 2.511528 0.531812 -0.552022 -0.011193 2.492674 1.522543 1.824205 -1.083098 0.154468 -6.433861 2.518897 -0.459232 -0.854558 -2.101743 0.936429 2.104568 1.312116 1.164573 -4.158927 -0.526001 -1.325253 1.911549 -1.410558 -1.346010 1.111179 -0.996220 2.953276 -1.121727 -0.617576 -1.908740 2.248643 6.639311 -0.643031 3.746333 -0.778460 -3.583336 -0.386093 6.304497 -1.651560 4.924153 -0.669922 -2.674809 1.492342 -3.828380 -1.796646 -1.627974 -0.032142 0.118880 -3.586082 -3.868258 6.668514 0.282568 -0.669089 0.345923 4.287152 -1.220321 -1.748012 -0.660830 3.201219 1.235340 -3.263035 1.764336 -1.421023 -1.784949 2.942426 -3.062712 -1.305067 -2.335707 1.904699 -2.712223 2.174402 1.423790 5.848613 -0.621219 -1.287421 -1.675508 -1.738904 -4.687284 1.285112 -3.497224 -0.857190 -0.938803 4.759790 1.133368 1.689894 0.436586 -2.029846 0.558257 -0.284752 -0.906034 1.724438 2.884650 -1.007489 -1.953830 0.802828 1.039957 0.517531 0.344980 1.265898 -2.005956 3.222986 -4.323884 -0.508427 -2.232276 1.345924 -2.939437 0.583507 -4.390208 -0.281341 1.613041 -2.759357 2.468966 1.412246 -4.113567 2.162799 -2.186589 -1.113585 -2.233600 1.787801 -2.736774 2.082773 1.458159 1.867843 -2.209421 3.679219 -2.395676 4.896869 -0.487672 -1.035088 -0.697165 0.400342 -1.621647 0.825786 -1.106651 0.725007 -2.290758 -6.166462 -3.209906 3.945769 -5.311559 1.349966 -0.303055 0.365815 -3.360669 -3.343149 -4.651484 0.976532 1.867142 2.653629 1.258234 4.155478 -0.879901 -2.301480 2.354957 -0.997609 1.942115 1.243479 -0.993976 5.522108 2.149368 0.048467 0.112961 -2.792626 -0.502872 1.133475 -1.372605 -3.634554 -1.819865 -1.361882 0.499060 -2.281774 -1.845051 0.805193 -0.156453 3.681734 0.467859 -2.603871 -2.101629 0.916827 0.574057 2.011949 -0.986776 -0.128157 2.195525 -1.079474 1.674614 1.202078 -3.223723 1.628222 0.617861 2.233832 1.310756 1.506042 -6.110427 -2.147458 1.255795 -0.372915 -0.176510 2.384297 0.733328 -2.576320 1.877881 1.562191 -1.565506 -2.046154 -0.296055 0.107342 -1.698396 -0.019102 -1.471570 2.805568 0.632468 -0.436406 -2.800082 2.335768 -1.603533 4.925600 -0.223987 0.950578 2.858426 -2.390217 1.587102 1.406694 -3.077170 4.017142 1.940422 2.101424 -1.494630 -2.844491 1.236629 -2.504162 -3.379106 1.219792 -0.305454 2.134972 -0.917953 -3.185209 0.560686 2.689497 -2.969871 -1.816748 2.208956 -0.684043 2.374795 0.906241 -1.556883 1.971249 -1.240404 -0.012810 -0.651167 3.443879 1.767777 3.465581 0.004104 -1.438453 0.859194 4.449636 0.102958 -0.189088 -0.780396 0.220158 -3.083572 -0.279489 -0.940855 -5.233598 -1.674058 2.457915 0.266351 -1.642161 -0.843273 -0.224068 0.316181 -2.885097 -0.468721 -0.808397 -0.221150
sig 3.099115 -2.275855 1.308105 -1.047427 1.795171 5.727732 -0.730886 -5.985502 0.003501 0.735929 0.373430 3.591154 -1.021725 -1.946123 1.065848 -0.638921 -5.689583 0.601025 1.089999 0.236620 -1.904369 3.069526 -5.218573 2.394018 3.007007 0.077690 -2.292145 2.164113 -4.460336 3.799614 3.852837 1.888992 -6.317015 -2.543096 0.402610 -0.348885 -6.289919 -7.172667 -1.131275 3.024958 1.382301 -0.937956 -2.559313 -2.439936 -2.295654 2.272089 -7.195190 -1.329686 5.458190 -0.344657 0.927765 -4.135023 -3.540540 2.708531 0.238024 -0.084302 -1.124751 2.350239 2.417911 7.026053 0.869930 1.536234 2.104305 5.359975 -3.602277 -1.227158 1.652684 -0.229866 -4.119297 0.857401 4.645755 -2.271280 1.444538 -1.155264 -0.725836 3.525346 1.810305 3.576403 5.942588 1.817905 5.730698 2.142475 -0.739222 -0.827523 5.009068 5.008796 0.427103 3.551018 -4.919733 5.222580 -0.333286 -0.872873 2.784453 5.092774 7.092437 4.537436 4.683772 -3.011270 3.195745 -4.551143 -2.077555 -5.266051 -3.068013 -2.271737 -0.247037 -1.917878 0.045477 1.793905 1.511494 0.342792 -0.194052 4.311535 -0.456239 -2.477427 -1.709876 -4.415698 -2.099291 -5.180063 -3.142098 2.116048 1.169442 -6.700917 5.144060 -0.591816 0.142578 -2.350570 0.325823 -0.426448 4.299181 -2.240417 -4.878954 4.671117 4.076054 4.932130 0.264054 -2.098851 -1.073028 -0.822901 3.663047 2.164115 -2.847560 2.544761 -5.965606 -2.792162 -1.067887 0.543742 6.328143 -2.003927 1.011101 2.140075 3.204024 -0.433750 1.532562 -1.369686 0.708325 -1.854090 -2.563783 1.096108 -1.650703 -2.991892 -2.087078 4.392423 -1.869739 -4.760882 -0.850833 -3.642583 0.161468 1.783993 -1.399794 -4.914332 -4.397576 1.726530 5.118310 3.406496 1.714109 -1.614917 2.249801 -0.459130 -0.410217 0.917656 1.292564 -0.674482 -0.067657 -4.468725 0.716541 1.413133 2.365317 6.958067 2.058446 1.115132 -0.435455 -3.971433 -0.900723 -4.328794 0.132777 -4.792752 3.030395 2.600967 0.636548 2.695020 3.218397 -6.090248 0.197977 0.238376 1.374310 -0.561955 0.618491 3.119844 4.429486 -2.335322 -0.801706 -2.317300 -2.597391 0.461801 -6.198781 -2.899798 -0.755861 2.944472 -3.646500 -0.101194 3.530832 -6.050744 1.111790 2.941888 -6.176086 -3.813552 0.528190 0.180202 -1.395285 -4.797064 11.237510 -0.814627 3.918269 -2.067411 -0.863533 -4.437260 -2.038624 -4.323691 4.427189 3.685988 -6.046265 -2.093118 1.352523 -2.573369 0.006869 4.713186 -4.919837 1.718348 2.324651 -1.420113 -1.152277 5.356237 -6.266516 -1.199333 2.245939 4.176520 2.408759 1.849040 -1.727512 -8.745861 -4.282272 2.641175 5.876412 -5.563791 1.400625 -0.517884 -6.239943 -0.824688 4.826713 1.783432 -2.022137 1.869554 -1.271288 -0.774372 -1.212499 2.738785 3.266911 -1.896212 -6.910173 -0.550500 0.983377 -0.708351 -1.025035 0.988395 2.155138 0.306869 0.254721 2.572660 3.526655 -4.012823 -2.991174 1.876490 -2.931466 -1.319219 -3.669905 0.326462 2.400176 -5.093985 -3.357206 1.472657
från -2.875615 -0.337816 4.137011 0.969740 0.009971 0.708388 -1.608084 -1.689835 1.380262 -2.123583 -2.202745 -1.983184 1.929233 3.129345 5.366607 -0.300300 -2.679101 -0.153913 -3.496530 -0.207495 -2.205667 2.369783 -0.859811 0.063469 0.226354 -0.722299 0.880409 5.333722 4.441752 2.458714 0.173067 -0.687722 -0.405191 3.017560 -0.394329 3.887367 -0.711977 -1.328659 -0.765260 0.872459 0.108402 -0.265129 0.904518 3.052250 1.579354 -0.230237 1.508831 2.401900 1.029701 -1.000866 -2.365682 1.641874 -0.207732 -2.079888 -0.623839 2.230400 0.647499 -2.437427 -6.856949 -2.375267 -3.910710 -0.914558 0.654921 2.554840 3.013468 -0.103630 -0.420052 2.632453 -0.664417 -3.222983 0.530182 -1.090565 0.324643 -0.583336 4.381146 -4.689661 -0.712496 2.760123 2.235898 -1.851071 -0.032696 -0.170492 1.630867 -0.834470 -1.939751 -1.385971 1.175830 0.924903 0.127149 2.922396 1.564771 3.039041 -0.275169 -0.397027 -0.052280 -2.251586 0.485122 0.155487 -1.448585 0.839551 -0.706038 3.888880 -0.195022 2.583971 -0.169049 -2.428920 0.897235 3.179574 -2.256747 3.233191 -0.634575 0.884883 0.402116 2.454604 -5.151650 -2.652807 1.648583 0.834439 -0.535124 -2.005604 2.331907 -0.034957 -0.061647 2.840685 -3.374720 -0.508422 1.282140 3.769789 0.513018 -1.568723 1.151785 -3.160687 1.531944 -1.863721 1.561606 -1.297954 1.098285 0.417652 -2.401361 0.303164 1.603418 3.018357 1.164081 3.304834 -2.243844 -1.390246 0.599978 -3.199012 -1.916923 0.437560 0.247990 3.364773 -0.516194 -0.498795 -1.535678 -1.202513 -6.290203 -4.697310 -2.722103 -2.919857 -2.373004 0.596271 1.155725 3.760152 -0.999839 -2.402744 -0.077485 0.436102 -0.343289 -5.296285 -1.183184 -0.242105 -4.870213 -0.120544 -1.441340 -0.843935 -1.379778 0.364253 -2.835602 -0.333205 -0.305228 -0.998184 3.498617 4.953284 1.705032 -0.427142 0.365159 3.591826 0.655455 1.889305 3.296721 -0.101617 -2.919591 -1.266054 0.388368 0.797161 -1.323770 -0.523587 -0.270487 2.019964 2.683359 3.023222 -2.550870 -1.179140 0.822865 4.840755 -4.782093 3.501885 3.525085 -1.161034 1.484653 -1.084995 2.086190 -1.267877 -0.345842 1.861560 1.249822 -2.099225 -0.735337 0.133482 2.439013 2.664753 4.454464 0.346304 0.155187 -3.262175 -1.274636 -0.992052 -2.022367 1.269288 -0.356101 -1.639703 -1.976432 2.983571 -0.325900 -0.229304 -0.714450 1.601933 -1.535480 -1.100709 -3.321719 -2.376368 -4.185231 -3.155729 2.395402 -1.792284 1.346576 1.479961 -1.016091 0.988514 -0.289620 -0.649160 4.894373 -0.560493 -0.645223 1.228889 1.738341 -0.904640 -3.226918 2.604831 -0.196203 0.367768 2.606228 0.060297 5.172278 1.307981 0.928126 1.864464 1.702565 1.059996 -1.502878 -2.697148 0.048659 -1.850418 -1.716108 -0.165662 0.540543 2.175476 1.246262 0.481447 -4.462898 4.266227 2.997388 0.658016 1.724504 0.885886 -0.161562 3.289207 -1.268369 2.479613 1.005567 0.145026 3.051077 0.671080 3.560769 -0.516660 2.635354 0.058639 2.091478 0.877448
man 4.157624 2.413957 0.684161 -5.834065 1.564387 1.885013 -4.024993 -5.599436 -0.986151 5.250010 -3.885642 -6.465034 -1.555637 -4.561037 3.356809 -0.512607 2.671817 -0.084909 2.562491 0.688917 -1.928136 0.194983 -5.825328 -1.288881 4.794449 1.386983 0.660143 -0.101487 1.314819 2.718173 0.545410 4.984192 -2.772943 -0.444947 -2.368551 0.174980 -2.107147 -3.487918 -0.349360 3.046007 1.809407 -2.879281 -2.992533 1.895271 -1.287735 1.072665 -4.114773 -3.541042 2.554101 0.913592 6.438797 -5.938255 -2.699589 4.046842 3.195635 2.287721 1.044079 4.798906 -1.226443 1.305214 -0.070588 1.901248 -2.102169 3.546265 -2.112930 -4.308381 2.047174 1.034085 0.387619 2.276415 1.215418 -0.437084 -1.964856 -2.235283 -1.957529 1.808836 -0.697366 2.024363 5.706084 1.676117 -0.195630 4.844606 -0.830360 1.038328 -2.856164 1.294985 -1.672893 -1.804176 -2.069960 1.665753 2.650822 -2.939796 3.487972 -1.595382 -1.427557 1.773949 0.233139 -4.177793 -0.829064 -3.391192 -0.492397 -3.872975 -0.898213 -0.450427 -3.107234 -1.931854 1.003692 3.135487 -3.870093 -0.648126 0.405042 2.564369 -0.147477 -4.625052 -3.002954 -3.057062 -4.091804 -0.340530 0.434795 -3.955115 1.234480 -0.840505 -3.778728 0.246136 1.457402 -2.730587 -1.310426 -1.744636 3.647918 -2.316929 1.065189 0.761124 -0.391127 2.394444 -1.366099 -0.345867 5.706599 -1.571100 3.388638 -2.660809 -2.265656 -8.316314 3.065553 -3.254712 -0.973291 -2.094922 3.411037 -1.647446 -0.453447 2.668270 3.124317 0.475173 -3.275423 -0.056162 -2.800427 1.558151 -2.322890 7.090938 -0.998589 -3.222593 -1.354734 2.725327 2.597621 -3.615538 0.123659 2.324958 3.381801 -0.055836 2.968672 -4.491394 -2.408594 0.366835 5.712797 -1.883034 3.954710 -0.702958 5.210526 -3.432963 0.913161 -0.550145 -0.587323 -0.937703 3.732266 -2.656300 -4.434034 0.112668 2.430289 -1.612283 3.681175 2.371007 0.555251 -1.899748 -0.109873 -2.530810 0.954262 -2.866411 -2.602965 3.431561 1.875914 1.953147 -0.628782 -1.228948 3.805363 1.870736 -2.642453 2.691043 0.072489 3.524172 4.465411 2.143329 -0.420859 -5.026936 -4.853868 0.113242 -3.323132 -2.421807 2.604641 0.849056 -1.936840 1.866388 -2.516950 -0.822172 -1.299847 0.187917 -1.820858 -1.932152 5.273130 -1.146089 -0.338460 2.505677 8.323204 -5.839550 3.579175 -6.851742 -0.242091 -2.716102 -1.541824 -2.240308 2.440429 -2.725579 2.389856 -1.080708 2.013418 -2.658086 -3.004136 2.389053 -2.375936 -3.185435 6.375352 3.762894 -3.651887 2.867129 -1.660543 -1.168507 -5.063503 -0.020864 1.363229 -1.213881 -2.359675 -3.718986 2.306031 0.701821 3.034353 -1.760162 -2.599959 -1.742149 -2.052833 0.679342 2.330662 1.794860 -0.363266 2.670641 -2.868964 0.651038 3.716766 3.984919 5.256505 -1.787091 -0.480969 -0.832690 3.066316 -1.823860 -3.802360 -2.380177 3.410050 -1.043112 -4.441127 5.895190 -0.437619 -4.974106 -1.674477 0.229051 -2.810386 -0.790068 -0.871425 1.973823 1.115496 -3.238607 -0.044721 0.239001
kan -0.737282 0.453787 -2.804445 9.416188 -1.765150 0.843417 -1.815830 3.764844 4.315938 2.585821 -2.153848 3.900970 -4.186321 3.149153 -0.122465 -3.374142 -0.675101 1.671490 1.655037 5.494552 -4.609818 7.521026 3.036061 -3.584591 -1.963799 3.635114 -0.650917 3.953407 7.613162 -1.769669 -0.678803 -2.387784 -3.559017 -5.104311 0.138467 -9.941779 1.343414 1.558213 -1.435949 5.119662 -4.874611 -0.680551 -3.529864 2.665743 -0.951430 0.907570 5.674433 -0.298679 -4.934994 4.378799 -4.649613 3.768077 -4.341235 -3.872995 1.676332 -0.208890 0.383509 8.339431 -4.946601 8.257342 2.460761 -4.359350 0.994168 -3.884416 -1.451756 -2.373350 -2.748469 2.205881 0.862234 -4.518076 5.267182 2.263872 0.445272 -1.349733 2.617155 -2.828186 -1.233925 -2.981025 -0.574101 -1.994231 -1.264296 2.543450 2.627505 2.028301 -5.777338 3.798103 0.634875 -1.649292 -3.632396 -1.526624 -2.597020 -0.772701 -3.682941 -0.264516 -0.952850 4.003027 -2.069717 -3.957118 7.043752 -3.358849 0.497254 -0.454427 0.483554 3.892814 6.166549 6.475962 0.092953 -1.654766 -2.687272 3.204256 -3.324698 -0.227977 -2.005721 -4.607367 -1.080479 -0.266318 4.503956 4.478760 4.052282 -4.312473 0.850882 -3.564075 2.676707 3.039500 4.090434 -2.634612 2.294825 1.535724 1.885199 -1.949510 -4.948796 -2.414303 -2.513378 8.723969 -5.040242 2.403129 1.197567 -3.385456 1.595087 -2.500447 1.490766 -1.570462 -0.005830 -8.800885 2.304613 0.846452 1.278526 7.481690 4.866215 0.444738 -4.576838 -4.377973 6.150602 2.836018 6.333975 2.406322 3.502970 1.707794 0.047709 -3.031788 6.376747 11.174864 3.071229 -4.276010 -0.787451 -3.679235 -6.752472 -5.314886 -3.495822 0.008038 -3.952729 3.981316 0.725605 -3.539305 -5.414604 -0.338875 1.102563 0.741336 3.219249 -1.507583 -3.250499 5.669548 3.758063 -3.755823 0.507883 -1.596126 5.377637 5.630238 -0.544130 -0.967313 3.666632 3.165969 -0.149581 10.966253 -2.257728 -1.744151 -3.394094 4.020059 3.519924 -3.312617 1.583672 0.054799 1.985455 1.943054 0.659860 -7.424204 3.836816 4.352772 -2.536428 0.621669 0.344949 2.968964 0.073059 1.870075 -4.580269 4.727799 -2.257096 -0.219590 -1.240202 -10.394250 -2.806712 -2.831714 -3.424429 -3.183791 3.265689 7.518132 -0.535501 6.957820 1.484438 0.168992 -2.536601 3.656510 -2.592230 -0.783932 1.598674 0.393684 2.298136 -0.956896 -4.756550 -0.069249 0.894407 7.228409 8.804366 3.717049 -2.900920 2.612492 -3.575443 0.002658 4.333399 0.108392 -3.613043 0.443417 -0.957599 2.075679 -2.617777 -2.445025 1.358835 2.612600 -7.355223 -6.702291 -0.902804 -4.162386 1.075256 2.000873 0.355176 7.855001 -9.232645 -2.382331 -2.148500 1.023109 0.776023 -1.532580 -5.829475 -1.534001 -0.964859 -5.620049 1.001291 -5.828086 1.367360 3.831021 -3.899825 -0.683903 -1.739132 -1.396831 0.437370 3.184571 -4.854555 -4.081709 1.639709 4.181224 -2.754343 2.334393 1.257616 -1.825426 -4.729861 6.083486 -9.606850 -5.328437 -6.584435 1.894758
1 -0.593981 2.540635 1.475074 0.807584 2.814823 1.429612 -0.578134 2.041589 1.784293 -0.644568 0.090320 0.256608 0.785622 0.093211 0.236255 1.915649 1.250145 0.732140 0.148203 -0.682756 4.390547 -1.906310 -1.201700 0.427975 2.910263 3.287942 1.945083 -1.599983 -3.134339 -0.911744 -1.540114 -0.597353 -0.286941 3.567333 -5.443866 3.651883 1.223196 1.883991 -0.759127 -2.784324 2.436302 0.022150 2.179696 -0.235018 -1.260103 1.207837 4.295075 -0.052153 -2.601319 1.606007 -3.118056 0.410581 -1.128809 -0.647482 -0.954677 -4.129064 1.448418 -5.912387 4.265271 -2.502852 0.112966 -1.290655 -0.815993 -1.949501 0.688082 3.063497 0.235887 2.257984 4.261614 -0.135701 -0.942780 2.239448 2.722160 1.815981 -2.031240 -2.162296 2.515271 1.052347 -1.481310 0.555383 -2.114682 -1.753674 0.141774 -2.557562 -3.459943 2.003251 2.362206 -5.233140 -2.976473 -3.360363 0.819913 0.028230 1.097721 0.640474 2.539916 -5.653133 -2.799173 2.490393 -0.875618 3.214325 1.120790 6.052937 -1.747320 -0.125227 1.174502 0.574957 -1.546006 0.287637 0.640403 -3.403892 -0.613960 2.357538 2.649388 0.636018 0.049612 0.276584 -1.003194 -0.711872 0.788331 -0.112263 0.046490 0.167154 2.333247 2.809122 -0.144183 -1.831664 1.665906 3.192062 -0.508111 1.335041 -1.883729 0.437599 -0.644608 0.957418 4.213079 -2.215928 0.935663 -0.138650 0.906281 -1.411262 -1.709355 2.984318 -2.450632 2.972836 -2.047246 -2.028942 0.629914 -1.603275 0.535883 1.937905 1.837322 0.268112 3.099061 -2.036896 -0.230194 0.927852 1.933920 0.247370 -3.334812 1.018264 -1.885773 -0.494936 0.471650 0.196298 0.873780 -5.075316 0.027004 3.029230 2.178138 5.407264 -0.596795 -0.104209 -0.389417 -1.650175 1.149616 0.193153 -2.693118 -1.481166 -0.049837 0.439547 -2.076721 -0.916364 -4.101884 3.195310 -1.381056 3.700254 -2.648858 1.031163 -1.252957 -0.817422 -0.996451 -0.062641 1.314842 -0.433128 -2.340308 -0.705454 0.555752 -5.217659 -0.240799 -1.336647 1.014193 2.871466 -0.704883 1.777169 1.287449 2.618309 -3.043400 -3.398959 0.673362 2.118748 1.986209 1.320357 -0.613792 0.201333 -1.091965 -0.789977 -4.553195 -2.576891 6.992004 2.533446 -1.414035 0.519919 0.836646 -3.978779 3.157173 -0.802411 -1.696141 -0.790378 0.882504 2.788252 0.397482 2.448327 -2.994523 -0.824411 -1.992212 1.793622 -4.039895 -0.429158 0.482419 1.737137 -1.357614 -1.867398 -2.867573 2.138045 1.588248 1.765110 -0.228858 1.248219 -1.695192 -1.577228 -2.496432 -2.566483 0.277423 3.870785 4.386285 0.891996 -0.321546 3.297232 -2.735327 1.105494 2.020524 2.690532 -2.818326 -0.586471 -0.860597 2.286197 3.139462 -0.951129 -4.193616 -3.020110 0.672547 1.627997 1.940333 0.367797 -2.588214 0.400664 -0.170518 2.097884 -3.793542 -0.819402 1.288735 -2.148307 -1.569566 2.028992 3.665677 -0.511418 -1.264427 0.042188 1.929473 1.811604 -1.063920 3.476342 -0.087605 3.740455 -3.879526 -0.287252 -1.257226 0.887677 3.936021 -0.438691
säger -0.780585 0.363921 -2.707658 0.865943 -2.160435 1.014138 2.444100 -2.527046 -1.029672 0.040915 -0.684241 2.950406 -2.877798 -6.367585 -6.655348 3.009662 3.386567 6.310952 0.181701 -2.071563 2.042880 0.528728 0.557382 -1.018755 2.443040 1.981433 -0.726002 -2.727753 0.724710 1.795325 3.201799 -1.713304 4.068994 -2.709963 2.697723 -7.112109 -1.226228 -1.699077 1.546605 0.327882 -3.149813 2.006148 0.234301 -1.258108 -6.115217 2.729564 7.837267 0.913368 -0.779891 -4.234893 -2.408519 -0.665799 -4.829628 2.671328 0.254864 1.874270 0.335398 2.164194 2.948977 -1.571519 1.156083 0.062944 0.364638 -6.821744 -2.250960 -4.747478 1.587527 -2.364219 1.369372 0.440267 0.516887 6.617564 -7.011009 -2.184502 -3.347394 3.127446 -2.334408 -0.166859 2.146856 -3.946423 -0.503446 -0.623867 3.144548 3.830515 1.921433 -2.496317 8.021220 0.821745 -2.227117 2.900348 -3.989485 1.480620 -0.816296 2.263003 0.179763 -1.921936 0.463754 -0.384097 -1.314711 4.290069 0.338583 -6.242072 4.317111 -0.220300 3.832357 -3.020882 -8.398274 -2.896718 1.839314 3.500409 0.581091 3.297457 -1.272528 1.394820 6.448783 0.035337 6.861620 4.093256 3.038561 -2.465309 4.602665 1.700369 0.180445 -3.269971 2.167532 -0.814319 -0.475041 -5.877046 -5.832955 4.054299 1.642174 -0.143520 1.985177 3.434153 -4.430262 1.132429 -3.045123 -0.692715 2.102577 3.125816 2.265541 -5.759818 -0.455266 -0.986177 0.234682 -0.675155 -3.819720 -0.221739 1.200475 0.635634 -3.426155 -2.131874 -2.398619 -2.097055 1.199966 -4.128660 -2.313905 -3.495691 -1.355390 1.803800 -4.243537 0.459273 0.976134 4.387734 0.718454 -2.118262 -4.045163 1.165732 -3.280883 4.273654 -0.215849 -2.527298 -1.998673 -0.156118 -1.768992 0.809184 3.806666 8.004256 -2.261248 0.085991 1.196373 3.910539 -3.984365 0.080369 -1.005280 1.727619 -3.813323 4.668087 -0.058898 0.275230 0.097736 1.988142 3.811118 5.295120 4.887054 1.434114 1.367138 -0.614719 4.806246 -0.093733 0.943640 -0.832333 -1.812491 1.125446 -4.215441 0.293853 1.529025 2.129284 -2.822012 6.194710 -0.803701 1.269469 3.124758 -1.556350 1.643067 3.058385 -0.041317 0.559473 -4.586585 -2.743643 0.749958 -3.872081 3.230811 -2.413188 1.884187 0.529058 -1.662327 1.596841 3.827279 1.021987 -6.741511 -0.923733 1.500979 6.902752 0.459159 0.241761 -1.845793 4.070067 1.284328 5.248006 4.679733 3.890010 4.262913 4.675442 5.342127 -6.180142 2.812819 2.157563 -1.362616 5.085352 1.506791 -3.334428 -4.864067 -1.051140 -0.234043 -2.754241 -2.908107 2.216324 4.608272 1.403850 -3.056163 0.760445 -1.788302 0.900325 -7.207017 1.731184 -4.077881 -1.530865 0.702918 -4.344021 1.313909 -2.705953 -0.534745 5.658725 -2.440217 1.574160 0.114761 1.133967 -0.958626 -1.622898 5.001323 3.514692 -2.230778 -4.428050 1.772813 -3.698615 4.036723 -2.111059 -4.292902 1.207538 -1.886454 -1.150226 -1.821560 -0.001189 -4.758186 0.269326 -1.950061 -3.373211 -3.277990 -1.266399
2 0.560723 3.391112 0.071467 3.421835 2.343292 1.549826 0.765810 2.376201 4.713487 -0.566395 1.093635 0.692312 0.106978 -1.358486 -1.750814 2.519736 2.691250 3.130646 1.231064 -0.325408 4.851509 -1.449002 -2.179295 1.390659 3.449137 3.415569 2.404546 -0.661658 -2.548201 -1.774053 -1.474948 -1.770757 0.075327 4.779067 -6.172886 2.634570 1.879481 0.988089 0.423370 -3.321932 3.379482 -0.479545 2.513914 -1.125061 -1.102496 0.860947 5.402876 1.504633 -2.800747 0.011221 -4.795401 -0.215485 -2.179867 -1.030395 -0.074780 -4.020085 0.809350 -5.741464 3.978169 -2.884024 1.252556 -1.418670 -1.394775 -4.235901 0.717495 1.852367 1.011948 2.535590 5.488122 -0.713745 -2.617579 1.868826 1.401908 1.647053 -1.588513 -1.731952 3.123627 0.285160 -0.542405 0.454658 -3.762089 -1.592687 0.419755 -2.884773 -3.164815 0.650915 4.116178 -6.231091 -3.908067 -4.579700 0.325668 0.498702 1.563942 1.652725 3.304895 -5.610793 -3.148468 2.917550 -0.591111 3.863746 3.014488 6.145279 -1.017001 -0.697113 0.272007 1.156968 -2.950133 -0.330859 1.278216 -2.682400 0.252902 4.056529 1.564124 1.308048 0.605326 -0.091727 -0.663679 -1.213912 2.210690 -1.761391 -0.185941 -0.483093 2.385718 3.353956 0.614804 -2.035215 2.017734 2.175248 -1.923732 1.942379 -2.450613 0.723783 -2.284111 1.587180 4.113328 -1.414197 0.437700 0.537334 2.434514 -1.186592 0.042114 3.786576 -3.128612 1.587134 -2.181662 -2.263622 -0.828819 -3.383391 0.380233 2.207935 0.220345 0.294582 3.418234 -1.923538 -0.122872 0.910048 1.441362 -0.004554 -3.322352 0.788702 -0.325607 -0.158564 0.072704 0.875949 0.657392 -5.522497 0.402677 4.024156 2.031842 5.738934 0.674752 -0.594481 -1.674325 -1.562254 0.323775 0.935867 -2.230314 0.249866 0.288904 0.854795 -2.252828 0.065841 -5.315485 1.684408 -1.503124 4.741913 -3.011370 1.686506 -2.795199 -0.600979 -0.781018 0.915661 3.272189 0.517995 -2.032023 -1.468608 1.393044 -4.925470 -0.148153 -1.811829 0.752703 2.895259 -3.168545 1.988159 -2.453795 1.737625 -3.262541 -4.718037 0.802076 2.133554 2.888498 1.863297 0.358875 -1.060373 -0.414729 -0.102428 -5.830206 -1.447396 7.617770 2.809872 -0.278120 -0.080802 1.050413 -4.713760 3.225664 -0.138562 -1.714889 -1.131578 1.055613 3.033420 -0.181446 3.125412 -3.617341 -0.030526 -3.324401 1.608970 -4.504462 0.212266 0.480107 2.914834 -1.012666 -2.579853 -2.188998 3.313982 3.765216 2.598425 -1.340259 1.387306 -1.562012 -0.518247 -2.514082 -4.094354 0.182822 3.315627 5.164230 1.160538 -0.636852 5.092165 -3.361231 1.712118 -0.030449 3.876233 -2.746334 -2.010021 -2.060044 2.161151 2.298601 -0.575303 -4.292792 -4.852740 0.289214 0.389147 2.451312 1.275044 -3.631692 2.172421 -0.492709 1.831381 -3.187126 -1.051478 2.120834 -1.621491 -1.759797 2.793975 4.466928 -0.591752 -0.580983 0.098981 2.250750 1.532372 -1.684759 2.929538 0.566351 4.279693 -5.812028 0.672898 -2.235166 0.947061 4.420142 -1.276615
när -1.448858 -0.073393 5.358722 -0.269305 -2.823824 -4.648378 -1.036047 -4.778962 -3.702449 -1.027942 -1.867932 0.502204 -0.075210 -3.504071 3.367557 4.343232 6.348979 -5.532921 -0.099539 -5.555918 3.614540 -2.680038 -0.052101 0.651241 0.770412 -2.279798 -4.176036 -1.997171 0.661362 2.062876 2.945441 -0.538154 1.671092 -4.404094 3.512009 -0.253013 4.883714 -1.736021 2.954181 0.683119 1.936476 2.753762 -1.187461 1.706869 2.777141 1.571865 -1.476313 -0.342841 4.795280 -0.454576 -0.830197 0.418158 2.950885 0.505320 1.820889 7.432353 0.467583 -0.464277 2.302524 -2.189415 -2.773624 3.941955 -0.372764 1.581434 -2.941820 -1.976430 -3.075454 -1.659264 -3.203152 -3.166466 -1.298003 -0.513753 -6.699028 0.142366 5.572585 0.802701 2.198832 0.978164 0.753107 0.147805 0.948985 1.013697 -1.348225 -1.318881 0.400220 -0.158449 0.049313 3.918084 0.200098 1.301479 -0.844149 0.500682 0.958351 0.096527 -0.056378 -3.780751 1.504070 -2.460321 2.763042 -1.381801 -0.359759 -3.585212 -2.399100 -2.539058 -3.402722 -0.712466 0.026909 1.215736 -1.289390 0.114291 -0.037905 -4.559038 -0.092341 -1.281778 0.512269 1.742265 3.076978 -2.728672 5.140964 3.001982 -0.352085 1.191994 1.924937 -0.232455 -1.883714 -2.748980 -0.199447 -2.310755 3.724270 -2.298861 5.892811 -0.285539 5.767232 0.670900 -4.992400 2.085567 -0.965872 -1.250793 -0.884067 -0.661310 2.726686 1.861398 2.260120 -1.164712 -3.569296 -0.284750 0.776264 -2.354011 2.997139 1.913695 1.355871 2.672607 -2.438783 -0.253362 -0.663862 -0.194226 0.194158 0.196026 1.805738 -3.982800 -10.334310 -4.775740 1.641007 -6.571060 -4.812413 -0.453284 -4.762285 -0.319475 -1.782277 -1.460273 -7.627682 7.259577 -2.157886 -0.158713 -0.506768 -2.369512 0.780688 0.304762 -6.187919 2.077288 -2.076279 -2.347193 2.401953 -1.219814 4.321984 0.277844 -7.378281 0.380193 -3.985711 -1.957568 -1.011674 -0.325602 -2.233926 -0.271982 -2.018888 1.260907 3.197929 1.738246 1.529873 4.699009 3.041599 -0.890469 1.445339 -4.134144 3.370315 -3.333824 -2.913059 2.367992 0.573895 1.313874 -1.788187 -2.707325 -3.464072 -0.578101 -1.373609 -0.966775 2.384187 -1.523898 3.495581 2.173257 -0.679686 -3.411648 0.062797 1.364706 0.350151 -0.329454 -2.400594 -4.558001 -0.865198 1.245972 -1.546840 -3.220627 -1.197799 -2.775828 -0.162313 -0.072073 -0.982265 1.584101 4.118932 1.092833 0.671165 -2.366535 -2.768112 0.942048 1.436019 -4.219262 -2.146187 3.215975 -2.216400 -2.089797 4.807683 1.239659 2.815040 -0.567190 -2.212677 1.132212 -1.484282 -2.345893 2.896381 2.675966 -0.578202 3.837794 -1.396114 -0.180541 0.524558 -4.181245 -0.836347 6.029902 2.100303 0.080427 2.877152 -1.262831 1.802226 -2.620804 0.969509 6.299679 -0.118400 2.639448 -2.372140 2.260028 -1.246006 3.680541 -0.501824 -0.464702 -1.015136 -2.862268 1.296688 2.112041 -3.017268 1.225630 1.968376 -1.633655 -2.435778 -4.971583 1.123262 -0.582345 1.955236 -0.363585 -0.504740 -1.047039
år -1.303851 1.110103 -5.337765 -4.473738 -0.312788 -1.446460 -0.592977 0.543880 -1.323417 3.268558 0.524262 1.610140 3.147344 1.318836 -4.586494 2.268762 -6.044588 -0.912661 2.020990 1.717724 7.812292 -9.876037 -0.150433 5.144990 2.097439 -2.433695 2.719273 -0.193696 -3.500698 3.236262 1.321380 3.931731 3.782478 1.288352 0.197632 3.482137 -5.323174 -0.540901 0.139566 -3.562039 0.077461 1.260479 5.812950 0.649437 2.077505 2.044150 -3.331280 0.841461 -5.538491 2.107980 0.771920 -5.907408 0.784879 0.139067 -3.531039 -2.888601 0.541582 -8.793713 -4.785945 -2.994321 -6.639751 -3.366958 0.270326 -0.654946 2.812808 -8.274385 5.444973 6.867691 -1.466872 2.099957 -2.770040 4.121972 3.735159 3.596735 -0.907018 2.735130 -0.428245 -2.524374 0.908170 7.948702 -0.437636 -2.915496 2.509066 -5.591090 1.706840 -0.943280 4.634155 -3.111106 9.186900 2.518454 0.232153 4.537447 2.139048 -2.968780 -4.037266 2.827674 -6.574464 1.418494 2.402314 -1.972366 0.365483 -4.295974 -3.357632 -0.283509 -0.884174 -2.883954 -0.105981 -0.627336 -0.415993 -3.518767 -1.439725 2.128979 -0.234974 -1.119062 2.772489 5.524286 0.075351 -5.152388 2.762225 1.342211 -5.436905 4.740765 -1.455332 -0.210759 -3.792521 1.663939 2.334334 1.675911 -4.071173 4.936740 1.253748 -0.788876 5.858231 -3.890845 2.976664 3.203058 -2.667267 5.766041 4.996699 -1.406689 0.250096 -1.272381 -5.947837 -3.026182 4.267353 0.481348 3.270242 4.873254 4.791699 -3.056840 -7.133893 -3.770118 -1.276202 -3.724008 0.618873 5.102150 1.407130 3.635899 0.492909 -4.258370 4.185293 -3.955548 -0.809644 -1.421858 -3.976451 -1.636401 0.968912 -1.410468 -3.010943 0.303442 -5.474579 2.329618 -3.795790 4.352081 -4.449681 1.501059 -4.203626 0.574903 1.956424 -1.176226 -1.153691 1.306717 -4.823057 -1.334510 -2.156788 4.185414 8.572118 -5.995519 -0.473146 -0.523676 -5.722732 -1.333004 -3.533997 0.405133 -0.231727 -1.563400 -1.535033 4.379714 -7.331068 -0.501003 -3.987541 -0.135721 0.937168 -0.325458 -1.122960 1.127011 -1.003894 5.065308 -2.096081 1.722179 1.707170 -5.488442 3.371966 -2.401466 -1.075992 1.639769 -1.212252 2.457846 -1.809494 5.827662 -1.584387 3.316725 4.322120 2.326557 -3.951508 1.646128 2.467024 -1.381415 -0.130980 -6.034119 -0.357325 11.210601 -2.716856 -0.436061 0.397547 3.993996 -3.813755 3.783596 -2.558858 -3.866201 5.149834 -0.280234 -0.535896 3.277173 5.079576 -0.832454 3.966356 -0.338613 3.274653 -0.998860 -0.311617 2.337242 -3.798080 -2.863271 -0.634288 0.896463 3.968914 -4.980029 3.006528 2.295074 2.892478 -0.887011 -7.109849 3.505506 2.871437 -0.335372 4.918655 -3.490175 0.035108 7.559892 3.298683 0.498765 0.597922 0.667564 -1.627493 4.805901 0.949653 3.814482 -4.448459 -0.270231 0.680433 0.620872 -4.010100 0.345625 -3.130832 -1.467908 -0.620077 -3.558050 10.480145 5.694665 -3.321445 4.096920 -2.427519 -3.245162 1.468651 0.581203 3.773391 -4.277591 -1.510965 -3.068757
3 0.658046 3.872344 0.132635 3.393605 1.726772 0.899649 1.275511 2.601517 4.545455 -1.063707 1.243516 1.103014 -0.052499 -1.516454 -2.052919 2.958718 2.585525 2.353678 1.710141 0.139309 3.888548 -1.622375 -2.112123 1.375858 3.054606 3.447703 1.753677 -0.975496 -2.218326 -1.526812 -2.387813 -2.653252 -0.046354 5.462611 -6.112223 2.057880 1.609141 1.386228 1.495489 -3.214060 3.772314 -0.275261 2.130111 -0.970048 -0.993388 0.624090 5.319222 0.961022 -3.595265 -0.127327 -5.419804 -0.779131 -2.202249 -0.498422 -0.815065 -2.771536 0.248618 -5.935790 3.799209 -2.233663 2.264746 -1.213359 -1.699688 -3.649161 0.043526 1.721635 1.206074 2.200368 5.125622 -0.989744 -2.175249 1.608882 2.157093 1.392455 -0.920041 -1.769077 3.784666 -0.105034 -0.704924 1.220478 -4.299841 -0.884725 1.036840 -2.523235 -2.508560 -0.247244 3.913323 -6.802211 -3.309844 -3.846170 -0.229552 -0.962422 0.870992 2.488309 3.270070 -4.923794 -2.424337 2.178491 -1.040811 4.607397 2.900983 6.394953 -0.714559 -0.800430 -0.122196 1.604034 -3.265743 -0.311652 2.130064 -1.787825 0.019696 4.567946 1.316441 1.105179 0.633575 -1.205823 -0.480095 -2.021772 3.044606 -2.638519 -0.668704 -0.888611 2.699134 3.497798 0.524777 -2.725114 1.049037 2.548615 -2.799918 2.094499 -2.422716 0.919740 -1.075312 2.034630 3.764573 -0.303925 0.456786 0.958252 2.330551 -0.029792 -1.082859 4.650084 -2.621084 1.095314 -1.994700 -1.751450 -1.326658 -3.142763 0.706849 2.155916 0.062529 0.262434 3.217532 -1.715880 -0.279679 0.825718 1.651935 -0.892596 -3.590742 0.277342 -0.126669 -0.009142 0.004867 0.947131 -1.082011 -4.610964 0.197343 3.679054 1.991203 5.731232 0.709563 -0.413252 -0.537593 -2.269883 0.451808 0.975230 -2.054941 0.667748 0.266794 1.311069 -2.369698 -0.238440 -5.261250 2.275233 -0.372187 4.127257 -2.003426 0.680373 -1.744892 -0.957421 -1.009324 0.421719 2.885768 -0.346291 -2.217514 -0.659805 1.834354 -5.230632 0.456297 -1.251662 0.901810 3.129012 -3.152126 1.958144 -2.359504 1.868798 -3.731112 -3.558520 1.233584 2.975544 2.329191 1.307879 -0.739917 -0.594056 -0.249385 -0.137402 -5.593673 -1.417276 8.227200 2.764175 0.151558 -0.026963 0.953496 -4.919116 2.704704 -0.389433 -2.172164 -1.315030 0.900975 2.759960 -0.083592 3.839423 -4.045114 -0.250471 -2.520808 0.495860 -3.630741 0.243656 0.070779 2.456546 -1.145765 -1.541973 -1.364103 2.842115 2.952953 2.297387 -1.244476 1.235245 -1.479819 -1.050404 -2.288293 -3.380788 0.484774 2.703541 5.265119 0.805773 0.139790 4.741542 -2.991607 1.672798 0.059572 3.646378 -3.637157 -2.042724 -2.414869 2.258586 2.845707 -1.066937 -4.293402 -4.623971 0.565784 0.674796 1.841986 1.294016 -3.389146 1.705114 -1.011753 1.482993 -2.766096 -0.253550 2.108582 -0.946850 -2.317044 2.566149 3.662741 -1.510520 -1.588948 0.557094 2.325856 0.554527 -1.482419 2.257829 -0.008496 4.375606 -5.495370 0.373396 -2.187501 0.430959 4.158919 -2.542539
